,Type of Weights, Weights
1st Layer, Weights, "[[ 0.5904337  -0.18943608  0.22954273  0.43785286  0.7057502  -0.67872775
   0.00812328 -0.05475253 -0.6577511  -0.19049859  0.299762   -0.06468546
  -0.09889638  0.17512232 -0.07032359 -0.51740855 -0.7132967  -0.35590774
  -0.15261835 -0.5598148   0.16224837  0.4880575   0.70854723  0.60769737
  -0.29978985  0.13388097 -0.7669984  -0.7963742   0.24707627 -0.6700041
  -0.17075884  0.79750574 -0.15545583  0.48430502 -0.46652684  0.72226095
   0.69847083 -0.2847377  -0.30353546 -0.15476358 -0.44497982 -0.19074523
  -0.2019692  -0.38381866 -0.13534659  0.57479906  0.5253389   0.6157124
  -0.31100774  0.49086165 -0.66010934  0.43694758 -0.3489546  -0.7606752
   0.6755198  -0.729804    0.07377446 -0.0393309  -0.5644263   0.34401894
  -0.17583245  0.2658553   0.13271606 -0.4291208   0.5014249  -0.22657287
  -0.36452237 -0.23704797  0.42390776  0.6985371   0.6444237  -0.70500463
   0.33248913 -0.07190472 -0.6540419  -0.8009639  -0.11229014 -0.30906987
   0.5027567  -0.05504137 -0.59146434 -0.4006913  -0.60166264  0.33691144
  -0.18532431  0.62681425 -0.79539263  0.74453044  0.7181895  -0.5055901
  -0.3257229  -0.18936056  0.68677926  0.42516637 -0.76939166  0.33266413
   0.34367132 -0.0123657  -0.22898793 -0.12310547  0.6110709   0.51246357
   0.6615546  -0.18169296  0.7828015   0.2676134  -0.2577244   0.05309606
   0.11113107  0.09604603 -0.52106035  0.6885129   0.5401728   0.37012184
   0.78701234  0.6972997   0.25729716  0.7210647  -0.48235315 -0.25403333
  -0.3750802   0.03151983 -0.17829621  0.7786341   0.765267   -0.24970174
   0.5272517   0.59654164]
 [ 0.6321198  -0.3713272   0.52089643 -0.45301706 -0.5476331  -0.02387369
  -0.6944725  -0.75319177  0.4418918   0.32893085 -0.47454792  0.55262375
   0.12919587 -0.6959788   0.7874584   0.6042398   0.631832    0.4694928
   0.48619235 -0.7283426  -0.6187657   0.7008414  -0.45514402 -0.63528526
   0.62125206 -0.63794696  0.56071854 -0.48542073  0.34293115 -0.47679186
  -0.6544515  -0.34877354 -0.7130082  -0.6227058  -0.23707211 -0.01780158
   0.13172323  0.74637353 -0.53416634  0.3656783  -0.3523344   0.13271761
  -0.7767791  -0.7798704  -0.01416659  0.08132976  0.04419935 -0.46589103
   0.20587754 -0.39294857 -0.6452914  -0.44548032 -0.2244097  -0.72277623
   0.5839157   0.40808868 -0.2944318   0.04633778  0.7718009  -0.72176576
   0.63809085  0.6525595  -0.5627644   0.09530026  0.20418358 -0.5676002
  -0.19501644 -0.22103536 -0.56762666 -0.75716496  0.09917301 -0.6240975
   0.3973142  -0.6334449   0.14854586 -0.14790308 -0.22162384 -0.574273
   0.07179785 -0.25944024 -0.5428943  -0.7101511   0.05881172 -0.70694274
  -0.2276938   0.2881508   0.04373121  0.18857098  0.60006714 -0.01277256
   0.72346807  0.11186534  0.38063002 -0.24580294  0.46419668  0.58931875
  -0.6656973  -0.48940948 -0.0950371  -0.69470745  0.07384825  0.0410043
   0.24834692 -0.14882016  0.1031267   0.64317393  0.00800574 -0.3294769
  -0.0746581   0.46227705 -0.37935588 -0.10341716 -0.68832743  0.11338496
   0.74798787  0.19096458 -0.00229418 -0.32564408 -0.1939736  -0.181369
   0.33345068  0.44953215 -0.5914075  -0.6991953  -0.45714092  0.01145482
   0.0499413   0.8125528 ]
 [ 0.21389508  0.19517541  0.14348471  0.02278548  0.19123578  0.42865813
  -0.04221237  0.7999027  -0.3202284  -0.72528553  0.26965237 -0.11825103
  -0.49556428 -0.4803249   0.08039415  0.28880644  0.0925979  -0.03900212
  -0.5782223   0.6033325   0.1362738   0.10482615  0.6730281   0.633075
   0.4742962  -0.5059967  -0.07928103  0.7344645   0.6471709   0.6389452
  -0.709205    0.20343328 -0.16851372  0.6399702  -0.22495753  0.3142612
  -0.16682303  0.24025702 -0.73511547  0.81532574 -0.04747546  0.09000319
  -0.5539291  -0.14580745 -0.3463984   0.33327734 -0.42752802  0.7687099
   0.3441056   0.3764515   0.15243906  0.0632965   0.2474066   0.16904807
  -0.3836627  -0.33550146  0.76944363 -0.76980627 -0.5991103  -0.26373285
   0.77579176  0.62230945 -0.04054427 -0.75561106  0.64253175  0.00098658
   0.30345678 -0.01084942  0.03044081 -0.18699807  0.11032653  0.03857869
   0.1724478   0.08309227  0.60584617  0.15291286 -0.45986277  0.2321713
   0.05262226  0.21067297 -0.3288444   0.08389819 -0.78741556  0.5231861
   0.08901662  0.6268096  -0.6466576  -0.32052878  0.03637958 -0.6676724
   0.6997291  -0.41152242 -0.5539413  -0.37798542 -0.77617115 -0.4744475
  -0.09451443  0.53736067 -0.45131937  0.7458167   0.13824737  0.2643671
  -0.09323603 -0.77613705 -0.301376    0.24941504 -0.6391514   0.26860476
   0.6114061   0.21063769 -0.12575042  0.7077621   0.4038272  -0.58266985
  -0.3804367  -0.00531113  0.69615185  0.48256373 -0.28298008 -0.36011043
   0.11119998  0.45275986 -0.5571812   0.2532611   0.11720103 -0.508514
   0.7537255   0.14024758]
 [-0.5085083   0.57939935 -0.5224464  -0.34425393 -0.15746242  0.68865967
  -0.15760279  0.13397145 -0.23833823  0.41091275 -0.38548988  0.49605334
   0.3651905   0.01492947  0.8150343   0.6417829  -0.25142086  0.10371888
   0.6410327   0.33440018 -0.04430252  0.01281458 -0.80885065  0.71599483
  -0.3239598  -0.7860252   0.01316071  0.01706988  0.42364872 -0.31334883
  -0.43038905  0.7252933   0.25061285 -0.16631961  0.00498992  0.6839602
   0.72064984 -0.38964078  0.5038737   0.4582684  -0.56085163  0.7316724
   0.04674    -0.7416392   0.67986286  0.7005321   0.7865758  -0.10907811
  -0.47605875  0.05061287 -0.24110228 -0.50148237 -0.73972714 -0.11221713
   0.10840321  0.6391876  -0.17872018  0.32164848  0.24831557  0.02562183
  -0.41076887 -0.69900185  0.7284101   0.13698924 -0.22653198 -0.74276984
   0.73099494  0.39069545  0.1549707  -0.14649951 -0.72414845 -0.41602996
   0.44279325  0.09108454 -0.5506931  -0.09743387  0.04343784 -0.72610056
  -0.2560495   0.6588216   0.6910411  -0.14214712 -0.03190666  0.06153607
   0.16876602  0.19216943 -0.4807962  -0.62891847 -0.05176628  0.81241
  -0.40972254  0.09366935 -0.2547059   0.23436189 -0.40310732 -0.07613486
   0.30360746 -0.51319456  0.12515026  0.06129646  0.01182687  0.4014989
  -0.37741524  0.58548176  0.7871605  -0.1735642   0.33670008 -0.32142463
  -0.7831087  -0.05136567 -0.35201594 -0.5178808  -0.03587109 -0.7651837
   0.7556362   0.7911298  -0.5916553   0.7789161   0.5804428  -0.38525626
  -0.5309726  -0.28365242 -0.7080212   0.66707265  0.72163105 -0.04604226
  -0.5054832  -0.35092714]
 [ 0.33412147  0.74840736 -0.5459023   0.3636731  -0.06285846  0.16363943
   0.2762854   0.03366643 -0.02912581  0.1542148  -0.34714904 -0.45105287
  -0.22384131  0.5005733  -0.7639137   0.31218565 -0.08035952 -0.21251667
  -0.500809    0.22062027  0.01855791 -0.5608261  -0.7547565   0.30012703
  -0.7355328   0.8066666  -0.5193167   0.5927098   0.47296643 -0.6306894
   0.59588253 -0.51743734  0.33596087  0.4377234   0.80472994  0.07002246
   0.7604251   0.08643824 -0.41401243  0.27523696  0.3919028  -0.5774163
   0.3747387  -0.7948441  -0.49883783 -0.7228995  -0.08375376 -0.6928145
   0.5922512   0.19612312  0.24500442  0.49055183  0.5260464  -0.40822145
  -0.68230164  0.41134953  0.40041876 -0.09375268  0.29753864  0.48649526
  -0.39327288 -0.15198684 -0.32785997 -0.6436848  -0.53567076  0.01316404
  -0.68154556 -0.8120815  -0.6508961   0.75111914  0.17396194 -0.11360997
   0.09390002  0.64409184  0.7345159   0.1952436  -0.32923725 -0.29548883
  -0.6705266  -0.19966197  0.07537037 -0.5959376   0.08077866 -0.7068814
  -0.5248616   0.60476506  0.16605526  0.55562377  0.2843901  -0.39967728
   0.54212964  0.72901297 -0.6814153  -0.00136673 -0.00211954  0.12104529
   0.33619606  0.15472484 -0.22354132  0.7606306  -0.811525   -0.7432292
   0.22871542 -0.23749042  0.11930108  0.27377307  0.30613565 -0.19453269
  -0.7610032  -0.07448524 -0.54014033 -0.08873045 -0.3284066   0.24443829
  -0.1980468  -0.04391128 -0.15269154 -0.32371843 -0.29074693 -0.4630082
  -0.2742846  -0.12706894  0.09507567 -0.60575706 -0.57170045 -0.09798634
  -0.07684809 -0.5757046 ]
 [-0.17058617 -0.6694818  -0.16279286  0.7488985  -0.59007984 -0.6221485
  -0.3594941   0.5602336  -0.7041216  -0.5901046  -0.14857292  0.5116495
  -0.5754733  -0.62832665  0.13165218  0.03608757 -0.5281558   0.08539987
   0.20362711  0.48053515 -0.4996897  -0.31611198 -0.04660565  0.41567993
  -0.23112732  0.21684885  0.54052854  0.34148347  0.45202816  0.65156245
   0.35175717 -0.6856817  -0.7492879  -0.20950204 -0.36611554 -0.6911022
   0.35949492 -0.6532469   0.7622688   0.4154588   0.12055361  0.6536343
   0.725129   -0.796483   -0.75026375 -0.0470522  -0.62611717 -0.41251892
   0.16520864  0.25701928  0.41217268 -0.16874987 -0.49413288 -0.29006362
   0.44748306 -0.47223526 -0.2703284   0.7710706  -0.38790298  0.71103334
  -0.78698575  0.7614918  -0.43440974  0.76687574 -0.11143845  0.8073535
   0.5492263  -0.47240406  0.54478025  0.32046628 -0.41263476  0.5239525
  -0.6062391  -0.70265305 -0.50388515 -0.10530019  0.02532905  0.15530258
  -0.76971227 -0.55048674 -0.17842156 -0.25155306  0.7364085   0.1977688
  -0.3398704  -0.5255233   0.01911443 -0.02563894 -0.3905701   0.6080251
  -0.48936313  0.78972065 -0.7595395   0.6500069  -0.3527508   0.2521478
  -0.5051178  -0.36515778  0.05038613  0.20672798  0.07095259  0.371006
   0.58171034 -0.5139534   0.28204548  0.81416035 -0.4984545  -0.76674163
  -0.6222793   0.22830486 -0.54247344 -0.6082924   0.36604297  0.08983362
   0.22586024 -0.2815736   0.05690652  0.23403084  0.71697986  0.23857081
   0.7178992   0.08288765 -0.20791513 -0.5137727   0.50876725  0.36081254
  -0.7243182  -0.26666725]
 [ 0.64862466  0.5990778   0.3796966  -0.5529835   0.47761047 -0.09727442
  -0.03738403 -0.5275583   0.6389791   0.5729506   0.10664517  0.01843739
  -0.47997293  0.44275844 -0.32221442  0.5323378   0.4773401  -0.05030143
  -0.45003572  0.45384872  0.4742664   0.2695006  -0.7134737   0.4036306
  -0.4443419  -0.28280038  0.16694587  0.4170835   0.364815   -0.7203768
  -0.59819186  0.5959978  -0.46060562 -0.35803914 -0.36504546 -0.7625446
   0.684811    0.7757801  -0.61271876  0.30489933 -0.581488    0.7422538
  -0.34048498 -0.08313411 -0.44156104 -0.7177254   0.5212935   0.68334806
   0.10612088  0.3124746  -0.05772936  0.3102244   0.37501132  0.26899004
   0.05089653 -0.02928466 -0.23137069 -0.12743706  0.23263586 -0.17363119
   0.14692855 -0.2763812  -0.27335936 -0.03607857  0.680269   -0.23404521
  -0.05279958  0.20327854 -0.33664903  0.7615987   0.01212919  0.36942804
  -0.69114095 -0.20542979  0.26402664 -0.6535021   0.5315778   0.13395393
   0.17283827  0.05566162 -0.48368856 -0.7439639  -0.5040543  -0.1961155
   0.36532593 -0.42339015 -0.48359436  0.60449445 -0.00998741  0.24679172
  -0.81210744  0.25105917 -0.7140322  -0.5889041  -0.19209856 -0.6431177
  -0.22504121 -0.72613037 -0.49912652 -0.41099     0.5511632   0.6121373
  -0.3517033   0.5964134   0.10143292 -0.3751423  -0.584212    0.13485932
   0.02088439 -0.6569127  -0.04998255  0.7872118  -0.04312634 -0.8145026
  -0.48289937 -0.10881352  0.55202436 -0.42178804  0.07691914  0.49728763
   0.00656968 -0.09206235  0.6315887   0.40352833 -0.5133612  -0.03597564
   0.50347173 -0.22622168]
 [ 0.15106547 -0.7100502   0.51305974  0.33516705 -0.26366454 -0.53463686
  -0.5879212   0.5241269   0.43875587 -0.6596696  -0.29388338 -0.43225184
  -0.1170398   0.61810696 -0.7121421   0.10418785 -0.7355891   0.5731633
   0.5435318  -0.12105465 -0.0700857   0.41257155 -0.65646493  0.43219423
   0.5552888   0.4720137  -0.6967007  -0.38969412  0.6993468   0.66579485
  -0.23039597 -0.49436706 -0.7027644  -0.5940713   0.17705888  0.53806055
  -0.42225546 -0.36827442  0.6562933   0.01615804 -0.35868758 -0.55777526
   0.37818944 -0.04354954  0.6407434   0.0755744  -0.48053747 -0.22840995
  -0.48415616 -0.7706309  -0.6830852   0.5285809   0.627221    0.40541124
   0.5107342   0.1597426  -0.22903252  0.54638493  0.71877444  0.2423476
  -0.65484744  0.02553654  0.03640485 -0.26757616  0.4315251   0.02889633
   0.29469573 -0.48954105 -0.12755674 -0.81027484  0.03795171 -0.32489595
  -0.29210335 -0.31348568 -0.1555757  -0.2747236   0.04042202 -0.1306125
  -0.03036392  0.21343434  0.41630328 -0.71244854 -0.81194603  0.31105638
  -0.4066168  -0.7040942  -0.36389458 -0.48037532 -0.41646641 -0.14600426
   0.29784203 -0.41699162  0.21351159 -0.40254182 -0.7659396  -0.41403598
  -0.1344235   0.6610764  -0.16290885  0.65227234  0.17635632 -0.5293611
  -0.40417606 -0.45410722 -0.73416436  0.08682656 -0.3090309  -0.5678782
   0.3069135  -0.8090525   0.11330473  0.5128716   0.7012248  -0.47571906
   0.06353128 -0.33354446 -0.09069091  0.7907518   0.61152875  0.00821424
  -0.11022955  0.50154257 -0.4122388  -0.7692304   0.56791985  0.57033587
   0.24613464  0.7795868 ]
 [ 0.66081166  0.32428765 -0.40922302 -0.54384625 -0.5913135   0.7599329
   0.6117544   0.59684753  0.37478542 -0.52760506 -0.65124786  0.08972812
  -0.47435403  0.6997466  -0.3339743   0.17494226  0.32961237 -0.19319999
  -0.6216579   0.36351347  0.12009108  0.6423217  -0.28048927 -0.01444632
  -0.68188626 -0.3256577  -0.0550741   0.78609395 -0.32143846 -0.7888804
  -0.5574889  -0.7120286   0.10937011  0.45003283 -0.19119823 -0.12271827
  -0.18845552 -0.5226085  -0.2831307  -0.603151   -0.57734233  0.3938545
  -0.42381746  0.60120666  0.62628746 -0.2603022  -0.28915238 -0.07495654
   0.69967866  0.66176283  0.5247828   0.12140369  0.33367944 -0.43747965
  -0.4032539   0.12335193 -0.02939796  0.5141872  -0.6946559  -0.75647914
   0.65163016 -0.38760513  0.5619739   0.5202141  -0.3448358   0.5359762
  -0.50543046  0.10906643 -0.63449025  0.40093148  0.47930598 -0.7541172
   0.79370177  0.11772156 -0.12012923 -0.0376811  -0.6986911   0.22834337
   0.68216074 -0.7244054  -0.5765066   0.3970158  -0.21439934 -0.77801347
   0.26863015  0.2886573  -0.54593813 -0.39341947  0.71450174 -0.13173276
  -0.03559583  0.20523322  0.7045567   0.05880588  0.59649336 -0.4110153
   0.48125196 -0.7822267  -0.64799243 -0.0440619  -0.3469641  -0.31859455
  -0.47857094 -0.7761704   0.55265474  0.7136494  -0.5524324   0.6226895
  -0.8049271  -0.7202181   0.5402777   0.7459036  -0.28725904  0.18662989
   0.587433   -0.36569798  0.14354014 -0.3672446  -0.38891292 -0.20624703
  -0.10114288  0.3899721  -0.48561773 -0.04460585 -0.36006933  0.7352973
   0.2597772  -0.07216811]]"
,Bias Weights, "[0. 0. 0. 0. 0. 0. 0. 0. 0. 0. 0. 0. 0. 0. 0. 0. 0. 0. 0. 0. 0. 0. 0. 0.
 0. 0. 0. 0. 0. 0. 0. 0. 0. 0. 0. 0. 0. 0. 0. 0. 0. 0. 0. 0. 0. 0. 0. 0.
 0. 0. 0. 0. 0. 0. 0. 0. 0. 0. 0. 0. 0. 0. 0. 0. 0. 0. 0. 0. 0. 0. 0. 0.
 0. 0. 0. 0. 0. 0. 0. 0. 0. 0. 0. 0. 0. 0. 0. 0. 0. 0. 0. 0. 0. 0. 0. 0.
 0. 0. 0. 0. 0. 0. 0. 0. 0. 0. 0. 0. 0. 0. 0. 0. 0. 0. 0. 0. 0. 0. 0. 0.
 0. 0. 0. 0. 0. 0. 0. 0.]"
2nd Layer, Weights, "[[ 5.63078672e-02 -9.75098386e-02 -1.51530027e-01  4.90576476e-02
  -1.34043962e-01 -7.31034279e-02 -1.38552263e-01 -1.02571711e-01
  -2.95972228e-02 -9.68113244e-02 -6.04197383e-02  3.45325917e-02
   1.53953031e-01 -9.65080634e-02  4.88765091e-02 -1.84919208e-01
  -1.88801110e-01 -8.51057619e-02 -1.60282224e-01  4.80987132e-03
  -1.68918103e-01  1.22533247e-01  1.02490470e-01  1.81887969e-01
  -1.48255259e-01 -1.78337395e-02 -1.89723805e-01  1.43856481e-01
   1.98269561e-01 -8.03544819e-02  1.16400674e-01 -2.68785954e-02
   1.82043612e-02 -1.29821360e-01  1.90261796e-01  1.02798328e-01
  -1.02203466e-01 -1.56754926e-01 -1.13209486e-02 -1.17607281e-01
  -1.58982337e-01 -7.67341703e-02  3.14832777e-02 -7.53886700e-02
   6.04787320e-02 -8.46233219e-02  1.36549279e-01  1.96627364e-01
  -1.68531165e-01  1.70713320e-01 -6.97265118e-02  8.39152783e-02
   1.30589947e-01 -1.24735475e-01  1.03056058e-01 -1.87838972e-02
   1.55311719e-01 -5.61669469e-04  1.02819189e-01 -1.36182010e-01
  -3.62055004e-02 -1.96647123e-01  6.97831362e-02 -5.06559759e-02]
 [-9.14483517e-02  1.71783462e-01 -2.07165807e-01  4.26300615e-02
  -2.14871317e-01  2.11184815e-01 -8.99181068e-02  1.01263121e-01
   1.67483762e-01  2.43820995e-02 -6.06240481e-02  5.06162196e-02
  -7.70084262e-02  3.66124511e-03  1.83365300e-01 -9.98937637e-02
   1.38969615e-01  8.67769271e-02  1.03832617e-01  7.54299611e-02
   1.93018243e-01 -1.75210521e-01 -1.82159275e-01 -1.28661096e-03
  -5.58704287e-02  7.83672482e-02 -2.14150339e-01 -1.00269757e-01
   1.41610786e-01 -4.03690487e-02  7.17758387e-02  1.80455014e-01
  -8.41521472e-02 -8.09241980e-02  6.01063520e-02 -1.08742781e-01
   1.89355001e-01  1.76117167e-01 -2.10317627e-01 -8.18663538e-02
   1.40345559e-01 -8.19651484e-02 -1.19840898e-01  1.84196129e-01
   1.56373814e-01 -5.79078496e-02 -4.90725636e-02  8.40543956e-02
  -1.07436046e-01 -9.83727053e-02  1.85338303e-01 -1.09589435e-01
  -2.08239540e-01  5.63594252e-02  1.17500320e-01 -1.69392273e-01
   4.00754958e-02 -7.82998800e-02  6.27129525e-02  1.07760832e-01
  -1.34885341e-01  4.81010824e-02  1.58962205e-01 -1.22942947e-01]
 [ 1.04157031e-02  2.15156779e-01  7.54366666e-02  2.51059532e-02
  -1.97347134e-01 -3.91829014e-02  2.72599161e-02 -1.10967822e-01
   1.60341069e-01 -1.81785762e-01  1.73253223e-01 -2.04149708e-01
  -7.08676577e-02  1.78517506e-01  1.16397992e-01  8.72985870e-02
  -5.71303517e-02 -7.51182884e-02 -1.10042445e-01 -4.85128462e-02
  -1.05009064e-01 -1.31194830e-01  1.56276628e-01 -7.37181157e-02
  -6.58231676e-02 -1.47078812e-01  1.35361388e-01 -1.20280176e-01
  -2.74851918e-03  5.46466559e-02 -2.77351737e-02  7.50370473e-02
   1.04916096e-03  3.05718482e-02 -9.12479758e-02  2.08675936e-01
  -5.32965958e-02 -1.94668666e-01 -1.18065715e-01  8.87517780e-02
   1.34989619e-04 -2.06966251e-01 -8.51494223e-02 -1.08345002e-01
  -1.56013474e-01  2.35607326e-02  1.77471787e-02  6.58711344e-02
   2.01575086e-01 -1.70728743e-01 -1.36784196e-01 -6.67842627e-02
  -1.50073394e-01 -2.02433884e-01 -3.58058214e-02  2.68606842e-02
   1.62177667e-01 -9.48053077e-02 -1.96000695e-01  1.75778911e-01
   2.03707442e-01 -1.82719380e-02  1.86243489e-01 -1.78916410e-01]
 [ 1.93876877e-01 -5.17977327e-02 -8.33342373e-02  5.81830740e-03
  -6.52398765e-02  6.05674535e-02 -1.54528856e-01 -1.44272804e-01
  -4.67124283e-02  1.75242230e-01  2.39792019e-02  1.65702745e-01
   1.46300718e-01 -8.31151009e-03 -1.96448743e-01  6.46158606e-02
   5.16849607e-02  1.61099389e-01  1.04015961e-01 -8.18151981e-02
   1.31761432e-02  1.63153157e-01  1.83091462e-02 -1.18453324e-01
  -1.06367886e-01  1.33128598e-01  1.34129271e-01 -1.62651330e-01
   1.95376351e-01  7.21429288e-03  1.45248309e-01  1.36920467e-01
  -1.63464487e-01  5.36100566e-03 -2.21231282e-02 -2.05734000e-01
  -3.85160893e-02 -5.38697243e-02 -1.13976859e-01  6.09392375e-02
   1.31752208e-01 -1.04395881e-01 -1.19723976e-01  1.31048486e-01
   1.36224434e-01  1.71671733e-01 -1.78908259e-01  5.27933687e-02
   7.11828470e-03 -1.28282905e-02  1.15937546e-01 -7.23875314e-02
   3.33388895e-02 -6.96475804e-03 -1.63384065e-01  1.28712013e-01
  -3.00004184e-02  5.34862280e-03 -1.26895308e-03 -1.75559253e-01
  -1.37730435e-01 -1.49883330e-01 -1.91745475e-01 -3.34009826e-02]
 [-3.18468362e-02 -8.82747620e-02  6.84546679e-02  1.94700822e-01
   1.61333278e-01  2.23511457e-03  1.96024910e-01  8.77009779e-02
   9.21459943e-02 -1.72190800e-01 -8.72135758e-02 -1.15166903e-02
   1.02470443e-01 -7.95780718e-02 -1.42213345e-01 -1.75442651e-01
   1.46464705e-02 -1.33510828e-02  1.39704183e-01  5.13310879e-02
   2.71952301e-02 -1.39841557e-01 -1.22900203e-01  1.15176782e-01
  -1.19068153e-01  1.43026099e-01  1.57890603e-01 -1.60299927e-01
  -7.84500390e-02  2.04260126e-01  2.02876016e-01  1.05638102e-01
   1.57373741e-01 -1.48797125e-01 -1.76288545e-01  1.73097953e-01
  -1.66445971e-03  1.36027411e-01  1.66209295e-01  6.29968196e-02
   1.46334067e-01  1.13562927e-01 -2.01537311e-01 -4.78366911e-02
   9.65926200e-02  5.55531234e-02  7.41204470e-02  1.29045054e-01
  -1.79560333e-02  1.65572152e-01  5.64262122e-02  2.81248987e-02
  -5.93324304e-02  1.86839953e-01 -6.39850199e-02  1.25205204e-01
  -3.09307575e-02  4.76661325e-03 -1.43870264e-01 -4.74709123e-02
  -4.50202525e-02 -1.40884995e-01  1.09125987e-01  1.05613485e-01]
 [-7.47939646e-02 -1.22681081e-01 -3.59999537e-02 -4.93760705e-02
  -1.37508929e-01  1.48576066e-01  1.60088703e-01 -1.29129499e-01
  -4.04991806e-02 -4.98374999e-02 -1.28653169e-01 -3.09464931e-02
   1.11152515e-01  1.53598413e-01  9.14020687e-02  4.22855765e-02
   1.13556162e-01 -5.29493392e-03 -5.82958609e-02 -3.97405028e-03
  -1.37379378e-01 -2.57121623e-02 -1.22582853e-01  4.80352193e-02
  -1.01220787e-01 -1.65830404e-01  1.95449099e-01  7.95139223e-02
  -7.72869587e-02 -1.87671483e-01 -5.04708737e-02 -4.85147089e-02
   2.04698741e-02 -9.89269391e-02  8.69023651e-02 -1.67251468e-01
   1.75658777e-01  1.36543080e-01  1.06075928e-01  1.69807807e-01
  -8.87447596e-02 -1.08710378e-02  2.15220883e-01 -1.46823138e-01
   2.05076799e-01  2.15402260e-01  1.12463579e-01 -8.81286263e-02
   1.41281888e-01 -4.47923988e-02  9.13244337e-02  6.22039884e-02
  -9.37459767e-02 -6.10828400e-02 -1.05119169e-01 -5.31563163e-03
  -2.07932100e-01 -9.84209180e-02  9.14447457e-02 -1.28405899e-01
   5.90595752e-02  1.78302810e-01  2.37096846e-03  1.10180974e-02]
 [-3.93845737e-02 -1.38244152e-01 -1.88091412e-01 -1.87051430e-01
   1.56625465e-01 -8.36745203e-02 -2.14288324e-01 -1.80523157e-01
  -1.29289523e-01  1.32147983e-01 -5.01593500e-02 -1.83195800e-01
  -1.29107088e-01  1.20843336e-01 -1.80268466e-01  1.77569836e-02
   7.51560777e-02  1.73791721e-01  1.66405335e-01 -3.95171344e-02
  -1.24160387e-01  2.06677452e-01 -8.66876245e-02 -2.14173570e-01
  -2.13867426e-02 -9.65447724e-03  1.48900598e-02  6.75331205e-02
   6.11342937e-02 -9.98472571e-02  1.97760388e-01 -9.03782994e-02
  -4.43445593e-02 -6.04669154e-02  1.37761936e-01  4.92680818e-02
  -1.35168627e-01 -1.09612979e-01 -1.28543466e-01  1.88948348e-01
   2.14397654e-01  1.63119510e-01  6.75275773e-02  3.77477854e-02
  -1.40182644e-01 -2.12928936e-01 -1.39407843e-01 -1.24725714e-01
  -1.95105374e-03 -1.56742275e-01 -1.70785010e-01 -1.03959858e-01
  -1.81839034e-01 -1.43291056e-02  9.92450267e-02 -1.98826641e-02
   2.39814818e-02  2.10573807e-01 -1.64565518e-01  7.07741827e-02
   1.66411266e-01 -2.08550438e-01 -1.88155919e-02  1.76389769e-01]
 [-1.36016428e-01 -2.08754599e-01 -1.83063298e-01  1.31933391e-03
  -1.06560014e-01  7.38646537e-02 -1.76697671e-01  1.51842833e-02
  -3.76283377e-02 -7.14254528e-02  4.46020216e-02 -5.71817756e-02
   5.42758554e-02  1.83217838e-01  1.77654073e-01  5.60723245e-03
   4.04966623e-02 -1.66181043e-01  3.92286927e-02 -8.99983197e-02
  -1.07811004e-01 -1.12372845e-01 -1.97565481e-01 -1.55691504e-02
  -1.61628336e-01  1.57524928e-01  1.85882971e-01  2.70849168e-02
   9.10263807e-02 -5.01593500e-02  8.10632557e-02  6.17022067e-02
   3.52485925e-02  2.34117508e-02  7.49275535e-02  1.38806179e-01
  -2.14724138e-01 -1.26229703e-01 -1.34691253e-01  5.67975789e-02
   1.78200349e-01 -1.32610738e-01 -1.52879804e-02  3.31603438e-02
  -1.13984086e-01  1.40836194e-01  1.63356021e-01  8.17425698e-02
   7.46862739e-02  1.00791976e-01 -9.58415568e-02  1.22812703e-01
   6.00187629e-02  1.80068150e-01  1.52447715e-01  1.30504027e-01
   2.10290700e-02  1.36115596e-01  8.68539959e-02 -1.39360622e-01
   4.46098298e-02 -1.38163209e-01 -2.10287526e-01  1.94107607e-01]
 [ 5.85413128e-02  1.35666534e-01  5.40850908e-02 -1.69272050e-01
   8.77086073e-02  1.30345449e-01 -5.41450679e-02 -8.95568728e-02
   6.23251051e-02  1.21808365e-01  6.52808696e-02 -1.91538483e-02
   1.84682459e-02  1.10275969e-01 -1.83519870e-01  1.58334568e-01
   2.05320314e-01 -4.57248092e-03 -3.87057811e-02  2.16454938e-01
  -1.21843047e-01  7.32748061e-02  1.26685992e-01 -1.25636131e-01
  -8.09316337e-03 -9.14459378e-02  1.62797406e-01  1.01177469e-01
   2.38205343e-02  3.66666913e-03  1.15222111e-01  1.57359853e-01
  -8.87527615e-02 -3.71789336e-02 -1.15743212e-01 -1.62851214e-02
  -2.02377781e-01 -7.11430609e-03 -1.30860135e-01 -1.53387815e-01
   4.36288565e-02 -9.54058394e-02 -4.86880392e-02 -1.09678380e-01
   1.61632016e-01 -1.18741095e-01  2.03245446e-01  1.96766481e-01
  -1.47565901e-01 -1.08262055e-01 -1.71832830e-01  2.16021493e-01
  -5.46002388e-02 -5.31770587e-02  8.76833051e-02 -2.78308690e-02
   1.52310565e-01 -1.30415171e-01  4.83350307e-02  2.10811004e-01
  -1.47594079e-01 -2.13127404e-01  9.69650596e-02  1.62032917e-01]
 [ 1.58982918e-01  1.19292393e-01  1.18625909e-02 -3.87725830e-02
  -1.22492209e-01  1.20095596e-01 -1.06455684e-02  1.07589975e-01
   2.39577889e-02  1.24153152e-01  9.67956930e-02  1.57204643e-01
  -6.46129102e-02  2.09501281e-01  1.28855720e-01  1.13595143e-01
  -1.94105089e-01 -1.60108775e-01 -1.14195824e-01 -1.64266333e-01
   8.80220383e-02  8.57671648e-02 -1.87129170e-01  1.79141179e-01
   8.72750431e-02 -1.19749218e-01 -9.80514288e-02  1.19797066e-01
  -5.12060225e-02 -7.38768429e-02  1.74130335e-01 -1.46453828e-02
   1.61472335e-01  6.11900538e-02 -1.15163013e-01  5.99624366e-02
  -1.08942389e-03  1.55889854e-01 -1.16157457e-01  1.95494592e-02
   1.96249411e-01  4.47589010e-02 -1.88011959e-01 -1.87218189e-04
  -6.67908788e-02  1.82369158e-01 -1.17386460e-01  1.87136337e-01
   1.70809582e-01 -1.04663111e-01 -9.26822424e-04  4.74012941e-02
  -1.33545205e-01 -9.87840071e-02  2.21989155e-02 -3.46590430e-02
  -9.60256830e-02 -4.88139391e-02 -2.03955933e-01  1.81728676e-01
   1.21906474e-01 -2.03276008e-01 -6.22750819e-02  1.63346991e-01]
 [-1.60039186e-01  1.07067898e-01 -1.86796188e-02  7.70422965e-02
   1.04432985e-01  1.54208198e-01  7.59537369e-02 -6.14381284e-02
  -1.58408597e-01 -2.08680987e-01  4.40986007e-02  9.39178318e-02
  -1.46158502e-01  1.72214046e-01 -2.04455078e-01  8.16998333e-02
   9.34661925e-03  2.26897001e-02  1.38270274e-01 -1.77851662e-01
  -1.50443196e-01 -8.59585553e-02  9.49320346e-02 -1.13407083e-01
  -1.68735370e-01 -1.31271958e-01  6.98471814e-02  1.25873312e-01
  -1.54587284e-01  8.35149139e-02 -2.13513106e-01 -1.23670362e-01
   6.93081468e-02  1.40900835e-01  1.59436479e-01 -9.66863036e-02
   1.43073484e-01  1.43529579e-01  1.03610590e-01  1.08345971e-01
  -1.79534346e-01  1.59084961e-01 -1.85628399e-01  1.97524503e-01
  -2.03103229e-01 -8.07695091e-03 -3.24729830e-02 -1.29098952e-01
  -1.70726776e-01 -1.16355270e-02  9.83839482e-02 -3.45605612e-03
  -2.82214135e-02  1.15340069e-01  9.90941375e-02  1.25605509e-01
   6.12981468e-02 -8.72984529e-04  1.17648795e-01 -9.89827514e-03
  -1.32665977e-01  1.84991524e-01  1.58459738e-01 -5.94123304e-02]
 [ 5.04030287e-03 -1.01870298e-03 -1.96637109e-01 -1.95206493e-01
  -1.87289551e-01  1.20701179e-01  1.08137235e-01 -1.86018348e-02
  -1.01435423e-01 -1.01243347e-01  1.79895744e-01 -3.76035124e-02
   1.80781558e-01  1.40889734e-02 -1.19410492e-01 -6.44096285e-02
   1.28438428e-01  6.43134564e-02  1.49181381e-01 -7.12122023e-03
   1.18000358e-02  1.87786505e-01  1.73451558e-01 -1.83103755e-01
  -1.46619976e-01  2.10686132e-01 -1.47265255e-01  1.41802505e-01
   7.15648681e-02  1.40339717e-01  5.63905090e-02  8.31978172e-02
   2.74711847e-02  7.51318187e-02 -7.25110024e-02 -7.01394081e-02
  -1.41478091e-01  1.48086175e-01 -1.28626823e-01 -5.33995032e-03
   1.22057274e-01  2.04845324e-01  1.26070693e-01 -3.04914713e-02
  -1.74421683e-01  1.92840248e-02 -1.16899945e-01 -1.34213924e-01
   8.38403553e-02  4.53267992e-03  7.03170747e-02  1.52740672e-01
   4.27318066e-02 -1.57784730e-01  2.96792984e-02  1.89411268e-01
  -4.48473692e-02 -1.62143394e-01 -7.96890557e-02 -5.61604351e-02
  -1.95394173e-01 -7.50055909e-02  4.34135646e-02 -1.02667518e-01]
 [ 1.91161260e-01 -1.69036418e-01  9.41014141e-02  1.20874658e-01
  -2.02610582e-01 -6.85078800e-02 -1.89535707e-01  1.35911748e-01
  -1.61636859e-01 -1.47627592e-02  5.77622652e-03 -2.11648196e-02
  -2.27175653e-03 -1.24128379e-01 -1.48559242e-01 -4.61532176e-03
  -2.36538053e-02 -4.53601032e-02  1.81838527e-01  1.37990490e-01
   2.15455011e-01 -3.08078974e-02 -1.20462805e-01 -1.74987793e-01
  -5.49211055e-02 -6.24063462e-02  8.01957101e-02  1.24685660e-01
   1.09437987e-01  1.46174654e-01 -2.29487270e-02  1.35521889e-02
   1.13988414e-01  2.69699097e-02  3.42158526e-02  2.08651766e-01
  -2.11216107e-01  1.77372172e-01 -1.18001238e-01 -1.65673524e-01
  -1.18120223e-01  1.23307541e-01  2.10040107e-01 -1.36867985e-01
   2.10924253e-01  7.79949576e-02  1.09105006e-01 -1.81415766e-01
  -1.01299144e-01 -1.14716403e-01 -1.98898599e-01 -1.41379386e-01
  -5.27587831e-02  7.45581537e-02 -1.02615692e-01 -7.85014480e-02
   6.89400285e-02  1.72785297e-01 -5.63089848e-02  6.30878359e-02
  -5.59499264e-02 -9.16960239e-02 -4.87535447e-02 -1.03731081e-01]
 [ 1.52475849e-01  7.47180730e-02  1.16492376e-01  1.76365808e-01
   1.86149403e-01  1.42197713e-01 -3.84155810e-02 -2.14933828e-01
  -8.24713707e-03 -1.25137016e-01 -6.87804371e-02 -1.30349413e-01
   6.37906045e-02  7.32419342e-02  7.20051974e-02  2.93310732e-02
  -6.22534007e-02 -1.27108932e-01  1.09919533e-01 -2.01538652e-02
   1.36385098e-01  1.46885350e-01 -1.50028169e-01 -1.49457991e-01
   9.18145925e-02  1.57167718e-01 -6.38712496e-02  8.54179412e-02
   8.24696869e-02  7.34699219e-02 -1.93049833e-01 -1.05217971e-01
   2.03491136e-01 -4.75489646e-02  2.09824160e-01  1.53530136e-01
  -1.54562250e-01 -9.31974202e-02  3.36310118e-02  8.69362801e-02
   4.62331325e-02  1.96998611e-01 -2.12095186e-01 -7.28813112e-02
   1.40489891e-01 -6.03308976e-02 -1.27399474e-01  5.71393818e-02
   3.18035334e-02 -9.88862589e-02  2.00497955e-02 -6.43242002e-02
  -1.16959415e-01  2.54697651e-02  9.22187716e-02  1.85585454e-01
   1.31702200e-01  1.04483739e-01  1.00380629e-02  1.68071792e-01
   1.38152167e-01  1.97768971e-01 -7.20839053e-02 -7.52402097e-02]
 [-2.37318426e-02  2.90817022e-02 -1.66464955e-01 -2.11703032e-02
   1.78560913e-02  8.90750140e-02 -1.61230356e-01  2.47648358e-03
  -1.67041585e-01 -1.22403525e-01  9.40843374e-02 -1.47699118e-01
  -1.66209906e-01 -5.80819547e-02  4.88571972e-02 -9.78351906e-02
  -1.43451601e-01  9.44605321e-02 -1.31581515e-01 -7.78442323e-02
   1.51203766e-01  1.86729237e-01  1.21294245e-01  1.11926898e-01
  -1.67278364e-01 -1.28021598e-01  6.64097220e-02 -1.43161327e-01
  -7.06542134e-02 -2.01297536e-01  1.95345238e-01  2.03739896e-01
   1.85929850e-01  1.79217979e-01  1.49288222e-01  1.05714604e-01
   1.22110173e-01 -1.79505914e-01  8.95485729e-02 -1.37781486e-01
  -1.03541762e-02  1.48702964e-01 -6.50897175e-02  1.69910327e-01
  -9.96669978e-02 -1.37880534e-01 -1.38474107e-01  9.86924320e-02
  -7.97189474e-02 -1.46969587e-01 -2.89183855e-02 -1.60834908e-01
   2.99213380e-02  1.42749101e-02 -1.32952988e-01 -2.10917383e-01
  -9.15905163e-02 -1.87258944e-01 -7.09965527e-02  1.98705748e-01
  -1.67982861e-01  7.76111335e-02 -9.69132259e-02 -2.08511159e-01]
 [ 1.45627692e-01  1.45735428e-01  9.24638063e-02 -1.60443634e-01
  -1.02188289e-02  1.45342872e-01 -1.44949630e-01 -1.64565161e-01
  -1.39718235e-01  3.21798921e-02 -1.97969869e-01  3.45089287e-02
  -1.33097306e-01  1.13142833e-01  1.64867386e-01  1.99109986e-01
  -3.00619453e-02  5.08853048e-02 -2.13282943e-01  3.57345194e-02
  -2.40315944e-02  6.54092878e-02  1.69111356e-01 -8.26080590e-02
  -1.29133061e-01  1.69825509e-01 -4.23760116e-02 -7.97887146e-03
   5.62229306e-02  1.10550597e-01 -1.03270121e-01 -6.86185509e-02
   1.12076566e-01 -6.13994151e-02 -1.55616358e-01 -1.09978184e-01
   1.81119785e-01 -8.02702308e-02  1.08849987e-01  9.34082419e-02
  -1.48737848e-01 -1.09711207e-01 -1.65677652e-01 -6.21449500e-02
  -7.23157227e-02 -5.01560420e-02  1.18925586e-01 -9.78888273e-02
   1.60716549e-01  5.39699197e-03  1.30479783e-02 -8.44292343e-03
   1.01198658e-01  2.16001347e-01  3.80412787e-02 -2.01159209e-01
   2.77873576e-02  3.28622460e-02  1.57129988e-01 -1.20000757e-01
   2.08627358e-01  4.11176682e-03  6.37506098e-02  1.74628511e-01]
 [ 1.17235020e-01 -1.00342594e-01 -6.47598207e-02 -8.33239257e-02
  -1.29948229e-01 -1.34322912e-01 -1.48881927e-01 -7.03005493e-03
   1.34271964e-01 -1.32752120e-01  1.82371750e-01 -1.49425209e-01
   1.34365484e-01  1.62560686e-01  5.60370237e-02 -9.99544710e-02
   1.18823364e-01 -2.42141783e-02  1.89315811e-01  2.02365294e-01
  -4.55520302e-02  2.06463635e-02  1.71636686e-01  5.05691618e-02
   5.57696372e-02  4.03718501e-02  4.51644212e-02  2.10879818e-01
   1.32786885e-01  1.81318983e-01  1.86134979e-01 -9.55121219e-02
   1.35165587e-01  1.03629336e-01 -1.96260244e-01 -2.46149451e-02
  -1.27929300e-02  1.75500944e-01  1.85409382e-01 -1.72287539e-01
   1.78256556e-01  1.23029783e-01 -1.59555227e-02  1.01709113e-01
   6.53413087e-02 -1.97682559e-01  4.90496904e-02 -5.00345379e-02
   1.48985371e-01 -1.81293786e-01 -1.16889626e-01 -3.83743942e-02
  -1.63028866e-01  1.91201404e-01  1.21555880e-01  1.66003719e-01
  -1.25969842e-01 -1.96004465e-01  1.10769555e-01 -1.79418311e-01
   1.49226651e-01  1.33636743e-02 -1.59621283e-01  1.75410345e-01]
 [ 3.90926152e-02 -1.01824373e-01 -2.50567496e-02  6.51334375e-02
  -9.56589282e-02 -1.01878881e-01  1.59713015e-01 -1.89600438e-01
  -7.85381496e-02 -1.82402521e-01 -1.19114824e-01  1.48006454e-01
   4.70618755e-02  2.86188424e-02  1.19673952e-01  2.83940881e-02
   1.63052574e-01  1.42176136e-01 -1.75687373e-01 -1.45936579e-01
  -2.13754579e-01 -1.48054510e-01  1.71485379e-01 -1.63670599e-01
   2.09804222e-01  1.38879716e-02 -1.68545038e-01  1.78945318e-01
   1.78595498e-01 -1.29947454e-01 -1.88651934e-01  1.69055030e-01
   1.73960730e-01  9.92277712e-02  2.03489289e-01 -1.19535826e-01
  -1.20573215e-01  1.25444576e-01  1.34087041e-01 -2.15918824e-01
   2.07762793e-01 -1.17944308e-01 -1.58245325e-01  1.40802562e-02
  -1.62481964e-01 -4.06927019e-02  2.00650245e-02  1.38559297e-01
   1.36791006e-01  9.89427418e-02 -6.39860928e-02  1.44341752e-01
   1.72764078e-01  7.85106421e-03 -5.43427169e-02  7.29659051e-02
  -1.12250969e-01  1.90507069e-01  1.05390027e-01 -2.00401068e-01
   2.95995027e-02 -1.73910394e-01  3.03614438e-02 -1.78516269e-01]
 [ 1.88140020e-01 -1.62317201e-01  1.38771698e-01 -2.08510548e-01
   2.04653189e-01  7.66934305e-02 -1.82120502e-02 -1.16057009e-01
  -3.25704813e-02  9.59446877e-02  1.26497433e-01  1.03542611e-01
  -2.17999965e-02 -1.53107107e-01  1.66612849e-01 -1.00980401e-02
   1.94272503e-01 -7.60583729e-02  8.93056393e-04  2.05925360e-01
  -1.31768018e-01 -1.80613860e-01  4.23412174e-02 -1.70702219e-01
   1.57462522e-01 -7.10852742e-02  4.25954014e-02 -1.80992335e-01
  -2.21216381e-02 -1.23138793e-01  7.79295713e-02 -1.31046951e-01
   4.26871032e-02  2.08511099e-01 -1.15667075e-01  5.36114424e-02
   6.32232279e-02  9.39397961e-02 -1.43169284e-01  7.60315210e-02
  -2.49145925e-02  2.30004489e-02  1.38356581e-01 -2.15259284e-01
  -7.25788772e-02  1.85039982e-01  2.03112513e-02 -4.34238762e-02
  -6.76344335e-02 -4.64604199e-02  1.63447857e-02 -1.09972246e-01
   1.79262891e-01 -6.90792501e-02 -1.53200924e-02 -1.12977304e-01
  -2.15026215e-01  5.04705459e-02 -1.75696045e-01 -2.01887041e-01
  -2.00936049e-01  7.25883245e-03 -1.77717090e-01  1.51161060e-01]
 [-1.07019164e-01 -1.82876736e-02  1.87553838e-01 -3.16076428e-02
  -1.31023198e-01 -1.05097286e-01 -1.11872084e-01 -1.72198653e-01
  -1.00802727e-01  1.47270367e-01  4.70308512e-02  8.59086961e-02
   1.18050948e-01  1.19074807e-01 -1.66326612e-02 -1.61451697e-01
   4.44124788e-02  1.30992964e-01  3.65583748e-02 -1.76031932e-01
   6.36652857e-02 -2.09489286e-01 -2.05971390e-01  1.04107186e-01
  -1.16149195e-01  1.72715709e-01  1.73532963e-03 -3.93546820e-02
   2.05357805e-01 -1.02649294e-01 -5.05822599e-02  1.50426254e-01
   2.44005173e-02  1.71189234e-01 -7.85897672e-02 -1.00268573e-01
   1.16073057e-01  1.15628824e-01 -9.42465812e-02 -1.42891318e-01
   1.83964625e-01 -3.38425934e-02 -8.22430104e-02 -7.03551322e-02
   1.32017747e-01  2.77548879e-02 -4.94991243e-03  2.73177773e-02
  -1.86536327e-01 -4.78336513e-02  1.03562132e-01 -6.03393167e-02
  -6.97609335e-02  1.38910189e-01 -1.89101949e-01 -9.58459973e-02
   1.24109790e-01 -2.15732157e-01 -2.02542648e-01 -1.91223145e-01
   1.68539718e-01 -1.78190082e-01 -1.50405318e-01 -1.68059006e-01]
 [-4.79976982e-02 -4.23095673e-02  1.10881105e-01  2.80847847e-02
  -6.34419769e-02 -2.01740384e-01 -1.35433435e-01  1.89569011e-01
  -9.16567445e-02  1.26278117e-01 -1.72348291e-01  8.18879753e-02
  -1.19049676e-01  9.78510529e-02 -1.83388129e-01  2.14075848e-01
   1.15534961e-02 -4.95327860e-02  9.95554477e-02  1.07741103e-01
   1.03977665e-01 -6.15367293e-03 -1.94585294e-01  1.05297878e-01
  -6.79012090e-02 -1.83291644e-01  7.67113417e-02  9.75248069e-02
   1.14809021e-01  1.47312805e-01 -3.42601389e-02 -8.52528811e-02
  -1.67443901e-01 -1.38358325e-01  4.57853526e-02 -6.40552193e-02
   1.32637396e-01 -1.85726270e-01  1.72181830e-01 -6.81269169e-03
  -1.60493702e-02 -2.20584124e-02  1.08803228e-01  1.57768473e-01
  -1.67656735e-01 -1.63104177e-01  1.11790434e-01  1.99841306e-01
   1.52946010e-01  4.27012593e-02 -1.10417664e-01  3.72688025e-02
  -1.26719505e-01  1.62582830e-01 -6.87589049e-02 -1.86583191e-01
   1.75667569e-01 -7.30200708e-02  1.74866751e-01  1.93449900e-01
  -1.09041139e-01  8.58585089e-02 -7.04539269e-02  1.59473136e-01]
 [-8.69325548e-02  2.09073618e-01 -5.62373996e-02 -1.37103111e-01
  -6.50331378e-02  1.54389903e-01 -1.95243180e-01 -7.06565380e-02
   1.45412847e-01  1.07252643e-01 -8.75341743e-02  1.08353123e-01
  -7.85806328e-02  2.35962421e-02  1.09892040e-02 -8.29462260e-02
   8.64800811e-03 -3.67133319e-02  1.70037255e-01 -2.12123111e-01
   1.10038355e-01 -2.00514495e-02 -1.03885628e-01  7.22087175e-02
   2.06931606e-01  8.35836679e-02  5.20062447e-03  1.07973650e-01
   4.73521799e-02 -4.13002670e-02 -1.65853009e-01 -3.39470655e-02
  -2.08811745e-01 -1.61328122e-01 -1.96944714e-01  1.20033905e-01
  -1.34355634e-01 -1.63830206e-01 -6.19603097e-02 -1.33552954e-01
  -1.31713897e-02 -1.52188450e-01 -3.69436592e-02 -2.07990021e-01
   1.79002568e-01  1.43759146e-01 -1.38826519e-01 -8.95905793e-02
   1.77786648e-02  3.44115943e-02  2.10482970e-01 -1.39761865e-02
  -1.45282730e-01  1.25266537e-01 -1.89341262e-01  1.91777274e-01
  -1.00541227e-01 -1.87278301e-01  5.95505089e-02  1.71097144e-01
  -1.25171661e-01 -7.37388134e-02  1.01013035e-02  2.05421910e-01]
 [ 7.96026438e-02 -2.04468518e-02  4.86066937e-03 -1.30077392e-01
  -8.72123837e-02  6.00547940e-02  1.85946569e-01 -2.66881734e-02
   2.07686648e-01 -1.43863916e-01  1.79427564e-02  5.24642915e-02
  -6.64181858e-02 -1.36299297e-01 -1.24227539e-01 -1.92163542e-01
   1.80910081e-02 -2.05279395e-01 -8.45748037e-02 -7.29552805e-02
  -1.68073758e-01  7.18366057e-02  6.49848729e-02  2.10954979e-01
  -1.47579983e-01 -4.51390296e-02 -1.22194573e-01  1.83389932e-02
  -5.67479432e-03  7.46480972e-02  2.22569257e-02  1.10038415e-01
   1.66768000e-01  1.14389762e-01 -6.59681708e-02 -2.01763660e-01
   1.31995544e-01  1.86817661e-01  1.90979987e-02  1.62263617e-01
  -1.97351277e-02 -1.91153556e-01  2.94287354e-02 -9.88070294e-02
   1.35863572e-02  1.39034763e-01  1.66142270e-01  5.31337410e-02
  -1.22502789e-01 -6.99836761e-02  1.19301930e-01 -1.94474161e-01
   2.02775761e-01 -2.30764449e-02 -1.68392465e-01  1.48816273e-01
   6.62904829e-02  3.92820686e-02  6.76379055e-02  6.37957305e-02
   2.10860074e-02  1.87963381e-01 -1.81141928e-01 -5.14994264e-02]
 [-9.34062228e-02  3.89424711e-02  6.92835003e-02 -1.95304766e-01
  -3.64513695e-03  5.87425679e-02  7.24891275e-02 -2.04786688e-01
  -4.77211624e-02 -8.08775872e-02 -1.73501775e-01 -2.65605748e-03
   1.83809921e-01 -2.81319022e-04 -6.16400093e-02 -1.91843659e-01
   1.68006673e-01  1.87999114e-01  4.73271459e-02 -9.86883044e-02
  -5.21116406e-02  1.39482170e-02 -1.44213587e-02 -1.96257457e-01
   5.77025115e-03 -2.11793184e-03  4.10805643e-03 -9.30385888e-02
  -9.49825644e-02 -1.46571994e-02 -1.04930602e-01 -1.78520441e-01
  -1.97312087e-02 -1.06306978e-01  1.67533770e-01  2.13421240e-01
   2.07736775e-01  9.22054499e-02  8.82918984e-02  1.94757804e-01
  -1.14448398e-01  1.33452550e-01 -1.05907753e-01  2.11529747e-01
   1.10181317e-01  1.61316082e-01 -1.91949263e-01  1.09601721e-01
  -1.82812467e-01 -5.88526279e-02 -8.40646029e-02 -1.20354250e-01
   1.18625358e-01  1.92206994e-01 -1.84454948e-01  5.21792918e-02
  -1.85318276e-01  2.55823433e-02 -2.11211726e-01 -9.73899290e-02
  -9.70427394e-02  1.78112969e-01  1.84131339e-01  1.57798678e-02]
 [ 1.62683859e-01 -1.84534431e-01 -9.95170996e-02 -9.15576890e-02
  -4.40918207e-02  1.07679263e-01 -1.91182405e-01 -4.01251614e-02
  -1.43698543e-01 -9.06092376e-02  1.77755490e-01 -1.96134701e-01
  -1.61565319e-01  6.85365349e-02 -1.13412440e-02 -1.84878558e-02
   3.82918864e-02  1.38024986e-03  1.27655670e-01  3.72593254e-02
   1.79690078e-01 -1.36329904e-01  1.64159581e-01 -8.57723653e-02
  -1.17766410e-02 -7.33829439e-02 -3.84855717e-02 -3.71610820e-02
  -5.56368083e-02 -7.17225224e-02  9.36814994e-02  4.64618206e-03
  -1.65676370e-01  8.41449201e-03  1.82358429e-01  1.57053247e-01
   1.42207995e-01  5.46392053e-02  1.47481129e-01  2.05700800e-01
  -1.31170467e-01  1.83784679e-01 -3.73302847e-02  2.22160965e-02
   1.19935885e-01 -1.39176071e-01 -1.17420733e-01 -7.48295784e-02
  -1.23584829e-01  1.17955312e-01  1.34129182e-01 -2.01505721e-01
   1.43142894e-01  1.03389040e-01  1.90808371e-01 -2.20177323e-02
   6.16100281e-02  1.45441368e-01  2.72706449e-02 -9.28355157e-02
   1.98467210e-01  2.15159670e-01  5.67103177e-02 -1.92806557e-01]
 [ 1.31401196e-01  1.13265082e-01 -1.15673013e-01  1.10968202e-02
  -2.95380652e-02  1.96691260e-01  1.57191768e-01  1.86643794e-01
   1.25099763e-01 -7.63996243e-02 -9.51257050e-02  5.76306432e-02
   1.87078372e-01 -1.73849583e-01  1.94730163e-02 -5.95690459e-02
   1.04255930e-01 -1.59568638e-02  3.61184627e-02 -1.13890812e-01
  -9.27786827e-02 -1.57029852e-01  7.60358125e-02 -2.02870995e-01
  -5.41429967e-02  1.11884311e-01  2.96511203e-02 -4.64814305e-02
   3.87702137e-02 -2.05340043e-01 -2.34432966e-02 -8.97365063e-02
   1.88287869e-01  1.13131896e-01  1.60563633e-01 -1.61607236e-01
  -1.81599677e-01 -1.69184655e-01  1.48044243e-01 -8.03259760e-02
  -7.85760880e-02 -2.06652880e-01 -1.42927974e-01 -4.73549813e-02
   1.53757289e-01 -2.08345056e-03 -1.63998336e-01 -8.45657140e-02
   7.60028213e-02  8.20028335e-02  1.15573898e-01 -1.35669500e-01
   1.86593935e-01  3.61819565e-03  2.02495620e-01  2.06843302e-01
   5.06265908e-02  1.81453243e-01  1.18114904e-01  7.45743513e-04
  -9.19582993e-02 -1.16064183e-01 -1.04993992e-01 -1.11777470e-01]
 [ 6.20762855e-02  6.02865964e-02  9.48316902e-02  1.99734941e-01
   1.37309536e-01 -1.91617459e-01  1.10371724e-01 -1.84590340e-01
   1.96577609e-02  2.13532940e-01  9.52625275e-03  3.08765471e-02
   1.99341699e-01 -5.36518991e-02 -2.04487652e-01 -9.74260569e-02
  -2.16162562e-01 -9.49893296e-02  1.82464138e-01 -2.85705179e-02
  -1.14776693e-01  6.44955188e-02 -3.88744771e-02 -1.60706267e-01
  -1.03497915e-01 -1.67771116e-01  7.70869702e-02  1.42774507e-01
   1.34415925e-03  1.69791281e-02  1.56378970e-01 -7.67524391e-02
  -1.23569652e-01  1.35155916e-02  1.82548463e-02 -4.63216752e-02
   3.00206542e-02  1.55917704e-02  1.79881305e-02  2.05171362e-01
   5.83841354e-02 -1.47524446e-01 -1.76211163e-01 -1.88935429e-01
  -2.77740955e-02 -1.37887210e-01  9.13461000e-02 -1.96306288e-01
  -1.19519666e-01 -1.51609480e-01  1.62853822e-01 -3.80215198e-02
   2.09958658e-01 -2.05917090e-01 -1.05101518e-01  5.19154221e-02
   1.73233911e-01  7.41534680e-02  1.27772391e-02 -1.43833220e-01
   2.02534124e-01 -1.46392703e-01  1.47310063e-01  1.93596318e-01]
 [ 7.20316619e-02  1.28877804e-01  1.05763569e-01  8.29057544e-02
   1.23771086e-01 -2.07824469e-01 -1.01863444e-01 -7.51843005e-02
   4.83738929e-02  2.08339021e-01  1.35156438e-01 -1.39574796e-01
   1.34836718e-01 -1.53272688e-01  7.79004544e-02 -1.08276606e-01
  -1.73973322e-01  2.04353228e-01  1.77220151e-01  1.89928487e-01
  -2.34171748e-02 -7.51938075e-02 -7.73050189e-02 -1.66516572e-01
   1.22228995e-01 -8.36521089e-02  6.89817965e-03  9.00388509e-02
  -1.30537868e-01  1.67359248e-01  7.18852133e-02 -2.58341879e-02
   1.26997218e-01  2.10898086e-01 -6.41171634e-02  8.25349241e-02
   1.66838571e-01  1.67231068e-01  1.10503420e-01 -1.13919616e-01
   1.85614631e-01  7.86294043e-03  1.54776409e-01  9.24955457e-02
  -4.92961258e-02 -8.03805888e-02 -1.29250437e-01  9.30482894e-02
  -7.39048272e-02  1.54880390e-01  9.02271420e-02 -5.34284860e-02
   7.22790211e-02  9.48015302e-02  1.81712225e-01  5.11162132e-02
   1.54777035e-01  1.59719869e-01 -2.60188282e-02  2.03413203e-01
   1.52600721e-01 -4.83334810e-02 -8.30910057e-02  1.20836571e-01]
 [-5.12070656e-02  9.01612788e-02 -8.41461122e-02 -1.30170494e-01
  -2.03028068e-01  7.00746924e-02 -1.79630458e-01 -1.34906456e-01
  -2.21078098e-02  1.63967088e-01  1.57535776e-01  1.85945481e-02
  -4.52010632e-02  1.23441175e-01  1.26873747e-01 -1.59284830e-01
   2.12795749e-01  1.84761450e-01  1.55300349e-02 -1.30274981e-01
  -1.96581304e-01  1.27814606e-01  6.42205626e-02  4.77321446e-03
   9.72052366e-02  1.85704976e-02  7.78785199e-02  1.55279636e-02
   1.09629780e-02  6.31304532e-02 -1.98517695e-01  1.35221079e-01
   2.07976863e-01  1.74526110e-01  5.69890290e-02  1.29526854e-02
   9.70817059e-02 -1.68240339e-01 -1.19364396e-01 -7.46418387e-02
   1.16289511e-01  9.82915014e-02  5.52019477e-03  2.01415792e-01
  -6.28953427e-02  1.21004298e-01 -9.29334387e-02 -8.05046856e-02
   6.52594417e-02 -3.12361866e-02 -1.42884448e-01  1.87588379e-01
  -9.93710160e-02 -6.29971325e-02 -4.10662740e-02 -2.00103641e-01
  -1.91348001e-01  1.90975681e-01 -9.69536901e-02 -1.33253932e-01
   7.11403042e-02 -1.95685819e-01 -1.72271177e-01 -7.63121247e-02]
 [ 2.12904945e-01  1.84764609e-01 -1.37205362e-01 -7.96359777e-03
   2.80354917e-02  1.31821141e-01  2.07392886e-01 -3.69655937e-02
  -1.67127118e-01  1.78082034e-01  1.72606751e-01 -3.68784666e-02
   2.12091938e-01  6.08528107e-02  1.07084140e-01 -1.23350173e-01
   2.04349771e-01  1.04765072e-01 -4.55437154e-02 -7.57360607e-02
   1.84648469e-01  1.22406378e-01 -1.79089010e-02  1.11864701e-01
   1.60048679e-01  1.00543067e-01  2.29865164e-02 -9.94516462e-02
  -2.00077683e-01 -1.83133036e-01  1.70526847e-01  1.99468419e-01
  -4.32825387e-02 -1.30333617e-01 -6.09614700e-02 -1.45053685e-01
  -1.94271207e-02 -3.92368883e-02 -1.33991152e-01 -9.98126194e-02
   5.30759245e-02 -5.26332408e-02  4.07168120e-02 -1.29686981e-01
  -7.85706788e-02 -2.12339029e-01  2.02668384e-01  1.13415435e-01
  -9.69030559e-02 -5.12610525e-02 -1.81532621e-01 -7.95982033e-02
  -3.32728177e-02  2.09932134e-01  5.16114980e-02 -1.48134798e-01
   1.48442641e-01 -2.58056521e-02 -9.75678861e-03  1.71002880e-01
  -1.15524605e-01  2.02927217e-01  1.76761225e-01  4.90878969e-02]
 [ 1.73702583e-01  1.26327857e-01 -1.43773496e-01 -1.16278708e-01
   1.11539260e-01 -1.32718682e-01  7.19281286e-02 -1.49279982e-02
  -1.24552332e-01 -2.08342373e-01  5.87085038e-02  6.10881597e-02
  -2.64758170e-02  4.10963148e-02  1.57232776e-01  9.65484828e-02
   1.69586524e-01  3.07621658e-02 -6.37009591e-02 -1.60332695e-01
  -1.90570056e-01  1.00849867e-02  8.31175894e-02  8.92925411e-02
  -1.70290962e-01 -9.98770893e-02 -4.90899086e-02  2.16015279e-02
   1.19378567e-02 -9.80085805e-02  3.89973372e-02 -3.84751558e-02
   1.37447268e-02 -1.70282185e-01  1.08196959e-01  1.03561878e-02
  -1.33607671e-01 -1.79598972e-01  5.56303114e-02 -1.98052227e-02
   8.96788090e-02 -2.04499990e-01  9.08163339e-02 -6.03196919e-02
   8.71098042e-03  1.33147851e-01 -1.21819094e-01 -1.77765727e-01
  -1.70755267e-01  2.36196220e-02 -1.02089129e-01 -2.09399119e-01
   1.18663624e-01  1.27552077e-01 -7.45009184e-02 -1.52017117e-01
  -2.13187799e-01 -2.15888619e-01 -9.61821899e-02  1.32545099e-01
   1.55216172e-01 -3.56758386e-02 -1.79424092e-01  5.95134050e-02]
 [-1.55085102e-01 -1.59156859e-01  1.08308241e-01 -5.67198247e-02
   1.15643993e-01 -2.08847716e-01 -1.74255818e-01  1.83443919e-01
   1.85605779e-01 -5.90452701e-02 -1.42389938e-01  1.29541323e-01
  -9.23498347e-02 -1.34073675e-01 -1.46647692e-01  8.71471316e-02
  -6.18793666e-02  1.80150941e-01  1.91409543e-01  1.98689595e-01
   1.38000771e-01 -1.06645547e-01 -9.85658094e-02 -1.02764301e-01
  -1.50888309e-01  6.89715296e-02  1.98933586e-01  1.91554531e-01
  -1.97547719e-01 -1.27926201e-01 -2.13160753e-01  1.54203072e-01
  -2.06179574e-01  1.75336584e-01 -1.34408236e-01 -1.39276326e-01
  -4.88257110e-02  8.62361640e-02  8.53649527e-02  1.44063428e-01
   1.00734338e-01  1.19158074e-01 -5.29207587e-02  2.09104016e-01
  -1.95634961e-02  1.69385150e-01  9.89580154e-03  1.25137314e-01
  -1.93895042e-01 -1.75522506e-01  9.99996215e-02 -1.66776985e-01
  -1.91600174e-01 -9.90475193e-02 -2.02440962e-01  6.26666844e-03
  -1.29935235e-01 -4.04869020e-03  1.55805692e-01  7.26707727e-02
  -5.13395220e-02  9.42763239e-02  4.78747487e-03  1.50594994e-01]
 [ 7.35424906e-02  1.22822508e-01  5.82011044e-03 -1.54407963e-01
  -7.35801905e-02  4.23476249e-02  1.72553524e-01  4.63577956e-02
  -4.57005352e-02 -4.69433665e-02 -2.00119644e-01  1.58419952e-01
   3.83980423e-02 -1.59977660e-01  5.68336099e-02 -4.45685238e-02
   6.89938664e-04  2.12974399e-02 -7.47842044e-02 -1.61784858e-01
  -2.15041757e-01 -6.44282103e-02 -7.23491162e-02 -2.06755176e-01
  -8.18710476e-02  1.45456538e-01 -6.74809664e-02  7.93210119e-02
  -1.04867063e-01  1.26982495e-01 -5.17812669e-02  1.98965445e-01
  -2.14880034e-01 -1.05273560e-01 -2.04970196e-01 -1.84134543e-01
   6.26326948e-02 -1.20867752e-01  2.01550260e-01  8.29333812e-02
  -6.11732751e-02 -7.51186907e-03  1.18842646e-01  2.11389661e-02
   1.79061607e-01  3.06454003e-02 -1.91786662e-01  1.79771706e-01
   1.57804236e-01 -1.60174698e-01 -1.24159455e-01  2.14808688e-01
  -1.61888510e-01 -4.02722657e-02  1.83503076e-01 -2.00555876e-01
  -1.00208223e-02 -6.71099871e-02 -1.82765186e-01  1.92053169e-02
   1.25158653e-01 -5.66604137e-02 -2.93354690e-02  6.33535534e-02]
 [-2.01753542e-01  1.17563412e-01  1.91204146e-01  1.58384219e-01
   5.94261140e-02 -3.71181369e-02  1.92074284e-01  4.98242676e-03
   1.55921534e-01  6.90393597e-02  1.56432167e-01 -1.47601515e-01
  -1.09045215e-01  1.10535815e-01 -2.66934931e-02  1.10958964e-02
  -1.33914500e-02  1.24028847e-01 -4.64445800e-02 -2.51421779e-02
   2.54652202e-02 -1.52921736e-01  1.44599080e-02 -1.64953381e-01
  -1.52537540e-01 -1.55624673e-01  1.43522605e-01  1.77322403e-01
  -1.42419875e-01  4.99144644e-02  2.09466368e-02 -1.20572545e-01
   1.12461790e-01 -2.11607635e-01 -1.86151400e-01 -1.50424927e-01
  -1.81349531e-01  8.57542604e-02 -4.71249670e-02  3.34677100e-03
   6.72945827e-02 -1.56784609e-01 -4.97819632e-02 -1.97256237e-01
   1.44113049e-01  1.26595214e-01 -4.82866168e-03 -6.23812675e-02
   1.08148232e-01 -2.15861782e-01  6.14426583e-02  7.15807825e-02
  -6.58433586e-02  2.51927227e-02  3.80894095e-02 -2.57240385e-02
  -5.02373278e-03  2.05195054e-01  1.31569907e-01 -9.21385065e-02
  -2.03232124e-01  1.19815663e-01 -1.71234921e-01 -1.28352642e-01]
 [ 1.13268331e-01 -5.19469678e-02 -1.56929404e-01  5.15198857e-02
  -2.07024634e-01  1.10104129e-01 -1.98515475e-01 -6.67282045e-02
  -2.03424245e-01 -5.83071709e-02 -1.65949941e-01  1.81651399e-01
  -5.52236438e-02  2.08199024e-02 -1.89017922e-01 -1.13763101e-01
   9.82572287e-02  2.16317430e-01  1.97388694e-01 -7.93516189e-02
  -7.91003406e-02  1.92650095e-01  7.10586458e-02  9.74130481e-02
  -1.02100275e-01  8.49823803e-02 -5.73590249e-02  6.28388077e-02
   1.75370917e-01  2.04756841e-01  7.17479736e-02  1.22581676e-01
  -8.83369148e-03  1.89323083e-01 -1.27915889e-02 -5.23937792e-02
  -1.35579258e-02 -2.08180070e-01 -1.10749111e-01  2.10175201e-01
  -5.94040751e-02 -1.42843008e-01  9.56808776e-02 -1.64398938e-01
   1.94828644e-01 -1.78809717e-01 -8.22724402e-02  1.16026953e-01
   5.42940199e-03 -2.03729272e-01  8.45375806e-02  1.27482012e-01
   8.87033343e-03 -2.12584838e-01  1.76845565e-01  1.54663846e-01
   1.96521595e-01 -5.45278192e-03 -1.23548232e-01  4.91449684e-02
  -1.07359029e-01  6.96055740e-02  1.78273603e-01  1.74288645e-01]
 [ 6.69513494e-02  1.17878065e-01  1.15412757e-01 -1.07383080e-01
   1.59413978e-01 -1.08717486e-01  9.55434144e-03  1.37981191e-01
   1.17039427e-01  8.65979642e-02 -2.10156992e-01 -2.05806524e-01
  -1.92176238e-01 -1.09960064e-01  1.56473294e-01  1.46712437e-01
  -9.82803553e-02  1.44285545e-01 -1.97075039e-01  1.28924057e-01
  -1.78163916e-01  1.58747539e-01 -3.01530659e-02  9.31295902e-02
  -1.05268508e-02 -6.86777681e-02 -4.11142856e-02 -2.07777813e-01
   1.49736628e-01  1.44967452e-01 -7.12671280e-02  1.48175374e-01
   1.95973024e-01 -3.57283950e-02  2.08164752e-03  4.54273820e-03
   1.61892787e-01 -1.65033087e-01  8.95587951e-02 -2.17769742e-02
   1.59091219e-01 -1.29168838e-01  4.28161174e-02  1.32266507e-01
   1.74668267e-01 -1.44275427e-01 -5.55515289e-02  1.00280866e-01
   9.97782797e-02 -2.76077688e-02  1.18125394e-01 -1.82262883e-01
  -2.16444865e-01  1.37511775e-01 -1.69069082e-01 -7.51040876e-02
   1.00905910e-01  1.65049657e-01  1.06521443e-01 -1.23737879e-01
  -1.92006156e-01 -9.14463997e-02 -1.12990677e-01 -1.18129253e-01]
 [ 1.31002769e-01 -6.94523156e-02  1.35481060e-02 -1.74216628e-02
  -1.71878308e-01 -4.15825695e-02 -9.46800783e-02 -3.87427211e-03
  -1.95848942e-01  9.96958464e-02 -1.02672681e-01 -4.26640362e-02
   6.52668625e-02 -4.71183658e-02  3.83175462e-02  1.16455659e-01
  -1.56304657e-01 -7.39628375e-02  1.03912011e-01  1.77294269e-01
   2.30549574e-02 -9.54657719e-02 -6.50768578e-02  5.56211621e-02
   1.99129954e-01 -3.49508971e-02 -1.00414291e-01 -1.82543904e-01
   1.85140818e-02  1.18196979e-01 -2.10125506e-01  2.08590820e-01
   7.30874389e-02  1.20328024e-01  4.30417806e-02 -3.87271494e-02
  -4.55100834e-03  1.03541985e-01 -2.08591431e-01 -1.48585528e-01
  -2.02702135e-02 -6.73640519e-02 -1.62535965e-01 -1.51334822e-01
  -1.70963511e-01 -7.76422471e-02 -1.19597465e-02 -7.27347732e-02
  -1.50634229e-01 -1.68953359e-01  1.17412165e-01 -3.48979980e-02
  -5.21965921e-02 -1.95372596e-01 -2.56959051e-02  7.40766972e-02
   1.77523270e-01 -8.40103030e-02 -2.00705573e-01 -1.03698671e-02
  -1.43248618e-01 -1.29399106e-01  1.42139986e-01  1.09928474e-01]
 [ 7.82045871e-02 -9.90632623e-02  6.23627752e-02  1.43468991e-01
  -1.08845681e-02 -1.70213014e-01 -3.67954671e-02  4.92754132e-02
  -3.80508453e-02  1.30298212e-01 -3.24506760e-02 -2.13116720e-01
   2.09549800e-01  2.08540574e-01 -1.70658380e-01 -1.82199538e-01
   5.60703427e-02  7.95190781e-02  4.32647914e-02 -1.57305807e-01
  -3.11146677e-02  5.45010716e-02  1.43003121e-01  4.97208387e-02
   8.83384198e-02 -1.31339416e-01  1.38864264e-01 -4.23321277e-02
  -1.61977261e-02 -1.24909841e-01 -4.00388539e-02 -1.62052184e-01
  -3.62975895e-03  2.13322476e-01  2.12822452e-01  4.95504886e-02
   1.74897015e-02 -9.21335518e-02 -1.94773659e-01  1.66855618e-01
   1.52644560e-01  1.53364316e-01 -1.61882252e-01  1.49059400e-01
  -6.13929033e-02  1.45975962e-01 -1.17738396e-01  7.35483915e-02
   5.65989763e-02  2.00179771e-01 -1.16552807e-01 -4.44999784e-02
  -8.15720111e-02 -1.81475639e-01 -7.24299252e-03 -7.50517994e-02
   9.14938301e-02  1.71779439e-01 -1.92864239e-03 -1.62357986e-01
  -1.91463083e-02  1.64203659e-01  8.56650025e-02  5.49951345e-02]
 [ 9.90986675e-02  1.61020055e-01  1.55948475e-01 -4.97148484e-02
   1.13609031e-01  1.73544630e-01  4.26085442e-02 -7.05556720e-02
   4.31370288e-02  4.02636379e-02  1.82981268e-01  2.65129805e-02
   1.48582891e-01  4.81093973e-02 -1.23134658e-01 -3.45801711e-02
   1.17238000e-01 -2.05651209e-01  2.14518294e-01 -1.92406043e-01
   2.05293730e-01 -3.95269394e-02  1.93367556e-01  1.37265041e-01
  -9.29576010e-02  3.76936346e-02  1.61821410e-01  2.07093909e-01
  -8.59412551e-03  4.75164503e-02 -8.12339634e-02 -7.04049319e-02
  -3.55243683e-04 -1.65940970e-01  2.13170096e-01  1.40314087e-01
  -1.68781921e-01  1.38700053e-01 -4.82912362e-03  1.96607366e-01
  -4.27951515e-02  5.50210923e-02  2.04707250e-01 -1.96334869e-02
  -1.96660191e-01  1.15393862e-01  9.27020758e-02 -1.46213472e-01
  -1.38474166e-01 -6.92742765e-02 -7.21532255e-02  1.86619535e-01
   4.83744591e-02  1.62668779e-01 -7.60200620e-03 -1.91747993e-02
   1.83640853e-01 -9.14423168e-02  9.44907516e-02  1.51661292e-01
  -9.58995298e-02 -8.38233531e-03  6.32397979e-02 -8.35221857e-02]
 [-1.36288613e-01  1.99570358e-02  6.59303218e-02  1.22151360e-01
   1.94749966e-01  9.22894329e-02  1.64331645e-02 -1.67989776e-01
   1.41237229e-02  1.36292025e-01  1.13521054e-01  8.15224499e-02
  -4.57143784e-03  1.06622875e-02 -1.00582987e-02  2.06161663e-01
   1.92175880e-01  9.09876972e-02  1.18799955e-02  9.10797864e-02
   1.01815030e-01 -4.58546728e-02 -1.93694562e-01 -4.12889123e-02
  -9.33900476e-04 -6.63799942e-02 -1.03879690e-01 -2.36529708e-02
  -1.52300194e-01 -4.38845158e-03  4.59586829e-02  1.48444191e-01
  -3.54826897e-02  7.80135542e-02  1.43287227e-01  5.54365367e-02
   1.90279856e-01 -1.87935099e-01  4.23121601e-02  1.26823768e-01
  -3.31986398e-02 -7.26532042e-02  1.19024679e-01 -5.22327870e-02
  -1.33253768e-01 -1.30735785e-02  2.10729554e-01 -2.08268031e-01
   1.24791786e-01 -1.75758049e-01  1.84640244e-01 -1.83824569e-01
   1.49017796e-01 -3.86996418e-02  3.76143605e-02  3.81286889e-02
   4.88947183e-02 -1.04218625e-01 -4.11848724e-03  1.68466225e-01
  -1.87464744e-01  1.41755491e-02 -1.99258015e-01 -2.16452092e-01]
 [ 1.02136210e-01  3.14664543e-02  1.81944355e-01 -1.55825943e-01
   1.27056643e-01 -9.53347087e-02 -1.09893113e-01 -1.12620510e-01
  -1.57313243e-01  9.81282443e-02 -2.80155092e-02  1.80868343e-01
  -1.91353709e-02  1.92412123e-01 -7.64182657e-02 -1.91128835e-01
  -8.27032030e-02 -1.31008327e-02 -6.97338879e-02 -5.03583401e-02
  -1.09478250e-01 -5.01081347e-02 -1.24515884e-01  1.95374921e-01
  -9.66702402e-03 -1.94960520e-01 -1.06976785e-01  8.17503184e-02
  -1.29421502e-01  9.02719647e-02  1.80919468e-03  1.93128571e-01
   7.72536546e-02 -1.00679666e-01 -4.42035496e-03  5.63859195e-02
   1.05233341e-02 -1.80916145e-01  1.92067429e-01 -1.13129169e-01
   1.99920967e-01  1.60180256e-01 -1.60182178e-01  1.67586431e-01
   1.96397945e-01 -1.31121874e-02  1.65440932e-01  1.79307476e-01
  -1.53757811e-01 -2.25340724e-02  2.11422905e-01 -1.56512991e-01
  -1.89058498e-01 -1.99474350e-01 -1.29162371e-01  6.88081533e-02
   4.72338349e-02 -8.25859159e-02  1.05823711e-01  3.81764919e-02
   1.53336152e-01  5.04624397e-02 -1.21617369e-01 -3.73439193e-02]
 [ 8.90760869e-02 -1.54563949e-01  1.12633839e-01  1.50633201e-01
   1.05617389e-01  1.53074369e-01  1.09467372e-01  1.90924719e-01
   8.96727592e-02  3.34788263e-02 -2.08801731e-01 -1.29948795e-01
  -1.45918161e-01 -8.85704309e-02 -1.33585468e-01  7.85749108e-02
  -5.73733747e-02  1.18005976e-01 -5.94466925e-03 -5.35398871e-02
  -1.28398001e-01  1.89171061e-01 -1.85093373e-01 -2.06032932e-01
   1.88685134e-01  2.14811549e-01 -1.43430114e-01  9.08594280e-02
  -1.27509594e-01 -3.89521122e-02 -1.06677912e-01 -9.60604772e-02
  -1.79084331e-01  9.80719179e-02 -1.98503092e-01 -1.59226194e-01
  -1.37418956e-02  1.77780792e-01  1.50808141e-01 -1.51736155e-01
  -2.14256644e-02  6.73464984e-02 -5.22360355e-02  1.09013572e-01
  -2.03199551e-01  7.81081766e-02  1.05983570e-01  1.29152998e-01
  -7.84756988e-02 -1.03989378e-01  1.80228725e-01  2.04474226e-01
  -1.38994023e-01  1.38363346e-01  2.89339125e-02  2.05146059e-01
   3.96268815e-02  1.22808620e-01  2.88434774e-02 -1.86699390e-01
   1.39413312e-01 -1.20013200e-01 -1.62941575e-01 -1.69781789e-01]
 [-7.81720132e-02 -1.35175645e-01 -1.04859993e-01  9.20018554e-03
   3.14421505e-02  2.10048601e-01 -8.39224458e-02 -1.48213089e-01
  -1.20099247e-01 -5.11531681e-02  1.79646417e-01 -1.18131682e-01
   1.03698209e-01  9.07468051e-02  1.90414324e-01 -9.57520530e-02
   9.87677425e-02 -1.23041026e-01 -2.17051804e-02  1.15163580e-01
  -1.72443166e-01  1.17828205e-01  2.58941650e-02 -5.06094694e-02
   1.71406701e-01  7.62546211e-02  7.66886324e-02 -1.77267641e-01
  -1.70403183e-01  1.02889314e-01  1.96506307e-01  1.49379805e-01
   1.89516649e-01 -1.57825351e-01 -2.06638321e-01  1.93399504e-01
  -2.09386572e-01 -5.87080419e-03 -1.99971080e-01  6.64351732e-02
   4.47630733e-02  1.67694464e-01 -1.35679841e-02 -1.81358457e-01
   2.06988409e-01 -2.06702784e-01 -6.77441210e-02  1.63141504e-01
  -1.27301157e-01  3.32028270e-02 -2.68536657e-02 -9.93568227e-02
   9.52463001e-02 -2.13031501e-01 -1.77803352e-01  1.29714921e-01
   1.95253298e-01 -1.87115029e-01  8.77500623e-02 -2.85122991e-02
  -1.53850988e-01  5.61161339e-03  2.10297853e-02 -1.51780441e-01]
 [-1.05291061e-01  9.79380757e-02  2.14488819e-01 -7.98803568e-02
  -9.32136774e-02  1.54646859e-01  1.24397561e-01  3.42148691e-02
   1.21961519e-01  2.13353619e-01  1.22588530e-01  1.55992106e-01
  -9.93497670e-03 -1.85467348e-01  1.11094967e-01 -1.96586937e-01
   1.67430475e-01  1.42152905e-02 -1.18867256e-01 -1.85090885e-01
  -1.02577135e-01 -1.80767164e-01  1.16955042e-02  4.23400849e-02
  -5.06386161e-04  1.69639066e-01  1.86444223e-02  1.46793887e-01
  -1.78612843e-01  1.17560819e-01  9.65269655e-02  6.80592656e-03
  -1.94600061e-01  1.76596448e-01  1.05585441e-01 -1.53158218e-01
   6.20781630e-02 -8.74222666e-02  1.58324093e-02  1.38345465e-01
  -9.00844783e-02  1.23242453e-01 -7.40407854e-02 -1.30279779e-01
  -5.23809344e-02  2.06533179e-01  1.67740002e-01 -1.71244413e-01
   1.65904477e-01 -3.57596725e-02  1.85079321e-01  1.76806793e-01
  -2.12284520e-01 -1.07086636e-01  7.36391395e-02  4.68771309e-02
  -1.48808315e-01 -2.09321484e-01  1.95160225e-01 -1.43264890e-01
  -1.31739780e-01 -8.99301916e-02 -7.45872706e-02 -1.46165043e-01]
 [ 1.16783395e-01 -7.40574300e-03 -7.06126541e-02  1.70413151e-01
  -3.97918969e-02  1.94689825e-01  1.34529904e-01  4.24084812e-02
   3.51666659e-02 -7.19812363e-02  1.16597459e-01 -8.11347067e-02
  -3.04539502e-02 -1.73845351e-01  1.47663757e-01 -6.63051456e-02
  -2.08645061e-01  1.94509998e-01 -8.94345343e-02  1.83412537e-01
   8.67487937e-02 -2.97197700e-02  2.02930465e-01 -3.54593545e-02
  -8.62552673e-02 -1.12772740e-01 -9.71927941e-02 -2.57326514e-02
  -3.74420434e-02  2.09868997e-02  6.19021207e-02  1.17022946e-01
   1.31480739e-01  9.10406560e-02 -5.27137667e-02 -5.74395061e-02
   2.26325691e-02 -9.37144905e-02 -3.70958894e-02  8.30292255e-02
   2.21420825e-03 -2.00992420e-01 -2.05491602e-01 -1.68952584e-01
   1.19846776e-01 -6.56786561e-03  6.40633851e-02  1.13614336e-01
  -2.06587374e-01  1.24745175e-01 -1.94256634e-01  7.84458071e-02
  -1.68716118e-01 -1.59909219e-01  5.92866540e-03  2.03901097e-01
   6.04549497e-02  1.17393121e-01  1.42520115e-01 -6.55716807e-02
  -1.53653547e-01 -1.59173235e-01 -9.57448781e-02 -1.60599366e-01]
 [-3.05043161e-03  1.34590119e-02  1.37155756e-01  1.12310633e-01
  -1.03558771e-01  7.58259743e-02  1.02265880e-01  1.76598653e-01
  -6.37354851e-02  1.86136588e-01 -1.77793741e-01  1.60704449e-01
   7.96850175e-02 -9.50111449e-03 -1.90257281e-02  1.43796161e-01
  -7.58238584e-02  5.87686449e-02 -1.12958409e-01  1.50290981e-01
  -9.39715505e-02 -5.98798543e-02 -3.48640829e-02  1.10854462e-01
  -1.97895914e-02 -1.78726047e-01 -1.67951629e-01  8.93098265e-02
   9.89511460e-02  1.35612652e-01  1.59434542e-01  1.74186811e-01
  -9.07200128e-02 -4.17784601e-02  1.74799934e-01  1.96065232e-01
   1.59770995e-02  6.77369088e-02  4.79143858e-03 -8.98271501e-02
  -2.10889816e-01  2.20960379e-02 -2.06275433e-01 -1.26221180e-02
   1.06273785e-01  1.58853829e-02  1.36710897e-01  7.89580792e-02
   2.14995310e-01  1.03634074e-01  1.20389357e-01 -1.87625334e-01
  -1.54011786e-01  2.01919749e-01  6.61060959e-02 -5.62590212e-02
  -9.34744105e-02  1.34340659e-01  1.74353555e-01 -5.11578619e-02
  -6.48587197e-02  1.70192465e-01  1.49514928e-01 -5.15361875e-02]
 [ 5.52128702e-02  7.98952729e-02  1.23610839e-01  1.30890027e-01
   1.89550221e-03 -1.96627870e-01 -1.07757002e-02  7.19896406e-02
  -1.62209570e-01 -1.05905384e-02  1.34435937e-01 -6.82863891e-02
  -1.49287075e-01 -2.88008898e-02 -1.69523075e-01  1.17687032e-01
   2.12377444e-01  2.08592966e-01 -8.20013881e-02 -1.02999806e-02
   1.52863100e-01  7.63206035e-02 -1.76597685e-01  1.83529869e-01
   9.71787125e-02 -1.09833233e-01 -5.07308245e-02 -2.11926594e-01
  -1.12728342e-01 -2.34971344e-02  1.62501320e-01 -2.15941325e-01
   8.44956189e-02 -1.94319978e-01  1.78186104e-01  1.81567892e-01
   1.39525428e-01  1.60450384e-01  9.15625840e-02 -1.13368526e-01
  -1.47367522e-01  1.85890779e-01 -6.22457117e-02 -5.56906015e-02
  -2.52360106e-03 -3.62717807e-02 -1.88444167e-01  9.16738361e-02
  -1.10098042e-01  5.87788671e-02  9.39641148e-02 -7.62037784e-02
   1.56633109e-02  1.78562924e-01  1.63706228e-01  4.33495492e-02
   1.40457317e-01 -1.09896675e-01  7.95960873e-02 -1.20665409e-01
   8.78966004e-02 -7.06020743e-02  4.11363095e-02  9.66721028e-02]
 [ 1.24064431e-01  4.19189185e-02  1.37323990e-01  5.63894659e-02
  -9.26868618e-03 -1.28274843e-01 -1.23657301e-01 -1.52051538e-01
   9.18885618e-02  1.51703224e-01 -2.68093795e-02 -1.02609098e-02
  -1.76012635e-01  8.87653381e-02 -1.88037768e-01  1.38646170e-01
   5.86743653e-03  6.41322881e-02  1.78441927e-01 -1.40533149e-02
   1.78884581e-01 -5.36482334e-02 -3.85314673e-02  4.85111922e-02
   7.66841918e-02 -1.84385881e-01  9.99572128e-02  2.12935433e-01
   5.99487573e-02  1.58066347e-01  6.45624250e-02  1.02669001e-04
   1.68948606e-01  1.53195858e-02  5.04536778e-02  5.86699992e-02
   2.00837627e-01  1.22487560e-01 -6.74718618e-03  1.61896095e-01
  -5.65163940e-02  1.39953569e-01  6.29043132e-02 -1.53977722e-01
  -2.57821083e-02  1.19410709e-01 -1.67011023e-01 -8.71710479e-02
  -3.81173790e-02  1.55256316e-01 -5.28442115e-02 -1.31559998e-01
   5.47626764e-02  1.63884237e-01 -1.74980968e-01  7.22219050e-03
  -3.24521214e-02  1.70398578e-01 -1.71551138e-01  6.68023974e-02
   1.06876597e-01  5.01600653e-02  9.74693745e-02 -3.65744233e-02]
 [-6.33984655e-02 -2.04711989e-01  1.29849240e-01 -4.35467809e-02
  -2.08945841e-01 -1.70791775e-01  1.91567838e-02  5.42334467e-02
   9.98111218e-02  8.87523592e-03  8.01981241e-02 -1.62129104e-01
   1.94175646e-01 -8.49105418e-02 -1.75741583e-01 -1.06930792e-01
   1.11027345e-01  1.41510651e-01 -1.20832086e-01 -1.08540900e-01
  -1.43160760e-01  5.43009490e-02  1.52806208e-01 -1.60983920e-01
   1.48539111e-01  3.41522694e-03  1.18732885e-01  1.13805786e-01
   2.14976057e-01 -3.24934274e-02  2.07148567e-01  1.15612879e-01
  -1.83331966e-01  1.37029126e-01 -5.69035411e-02  1.66459069e-01
   2.76126713e-02  2.96381116e-02  8.96422118e-02  1.83447152e-02
   1.01319954e-01  6.19507581e-02  7.43513256e-02 -9.78745297e-02
  -1.17435597e-01  1.72681078e-01  4.70124334e-02  1.97260424e-01
   2.01675400e-01 -3.57216299e-02  1.54117122e-01  3.03928256e-02
  -6.77708685e-02 -1.28292799e-01  1.07569531e-01 -1.74387977e-01
   1.92020074e-01 -2.71895528e-02  8.41017216e-02 -7.18934238e-02
  -1.42905831e-01 -5.56995273e-02 -2.31975913e-02 -1.28960043e-01]
 [-2.10531950e-01 -2.02884376e-02 -7.12288767e-02  6.97255284e-02
  -9.93186235e-02  1.45342901e-01  1.30494818e-01 -1.11959688e-01
  -1.35787234e-01 -8.09670985e-02  1.03890166e-01  8.49841982e-02
   1.91429242e-01  9.03825909e-02 -1.57935306e-01 -2.02691853e-02
  -1.81141973e-01  2.00076386e-01  3.39189172e-03 -1.14025950e-01
  -1.84359550e-01 -1.39925808e-01  1.22198030e-01  1.76989987e-01
  -2.11856902e-01 -5.99412769e-02  2.60123610e-03 -2.79991478e-02
   1.60003260e-01 -1.71690300e-01  5.88300675e-02 -7.56389201e-02
   5.15665859e-02 -1.01899996e-01 -1.57735080e-01 -1.93039566e-01
  -2.12456927e-01 -1.65580362e-01  1.74567714e-01  3.32501084e-02
   6.28359765e-02  1.67349279e-02  2.31205672e-02 -1.79928243e-02
   1.29033014e-01 -6.42937422e-03  1.86651126e-01 -8.84781927e-02
  -1.26526296e-01  1.05996281e-02 -9.56389308e-03  2.14825168e-01
   1.27609476e-01  1.09156087e-01  2.21786201e-02  1.20028570e-01
   2.66759396e-02 -1.36889040e-01  1.86480835e-01  8.75458866e-02
  -3.40421945e-02 -9.86949131e-02 -1.22654550e-01 -9.62542519e-02]
 [ 1.60540566e-01  2.43014693e-02  1.37815490e-01 -1.62090585e-01
   5.98265678e-02 -5.51124662e-02  1.61685631e-01 -1.26862705e-01
  -1.55033797e-01  1.45223215e-01  3.54541391e-02  1.98207006e-01
   5.03550321e-02  1.38765290e-01  1.46237746e-01  6.41290843e-03
   3.15123945e-02  1.36500821e-01  1.47925153e-01  3.03376466e-02
   1.41671255e-01 -6.59540296e-02  1.15546092e-01  1.41094759e-01
   1.14608869e-01  1.24962762e-01 -1.55247599e-01  1.35899559e-01
  -1.56107470e-01  8.35370570e-02  3.50304395e-02  5.37965745e-02
   1.27316341e-01  1.01075575e-01 -3.37675810e-02 -7.56229162e-02
   1.43745676e-01 -1.33670539e-01 -1.53735518e-01  6.70297295e-02
  -1.06403038e-01  1.51267186e-01 -1.51918679e-02  8.57533664e-02
  -1.58850759e-01 -1.70314550e-01 -1.20074213e-01  9.12687331e-02
   1.51454106e-01 -7.95992315e-02  8.69797319e-02 -1.50816143e-01
  -2.59490460e-02 -1.12159558e-01  1.55874655e-01  9.07035917e-02
  -6.41224831e-02  1.36691913e-01 -1.95220575e-01 -2.12782592e-01
   1.16628408e-03 -1.91715062e-01  9.36470181e-02 -7.13091046e-02]
 [ 9.08331573e-03  2.81781703e-02 -3.39901745e-02  1.65169373e-01
   1.22156143e-02  3.50718945e-02 -6.65945113e-02 -9.00337398e-02
  -1.98813573e-01  9.76360887e-02 -2.12033853e-01 -4.96407300e-02
   1.01585165e-01 -1.04235247e-01 -1.13800168e-01 -6.49916381e-02
   3.08794975e-02  1.89858228e-02 -2.45051980e-02  1.71414092e-01
   4.09315974e-02 -3.39304954e-02 -5.36333621e-02 -6.53863251e-02
  -1.99955702e-01 -2.09583193e-01  2.00084135e-01 -7.90593028e-03
  -4.49106544e-02  1.20840445e-01 -9.24906507e-02 -3.91587466e-02
   1.90369681e-01  1.88154086e-01  2.28755921e-02  1.03187010e-01
   9.94340330e-02  1.58557162e-01 -1.27439380e-01 -2.86439806e-02
   1.03983715e-01  1.28254101e-01  2.77194381e-03 -4.80324328e-02
  -2.01548979e-01 -9.62715447e-02  1.57994315e-01  1.54102638e-01
   1.38710782e-01  1.57309458e-01 -1.55534029e-01 -8.39650333e-02
   1.65173426e-01 -1.22356348e-01  9.35724825e-02  1.30284414e-01
   1.55023560e-01  5.17209321e-02  1.88663140e-01  1.39249280e-01
   1.94779351e-01 -1.49636537e-01 -1.29398853e-02 -1.56828538e-01]
 [-1.51038259e-01  6.19739443e-02  1.26787588e-01  1.36993304e-01
   1.88077942e-01 -2.12677032e-01 -1.78645566e-01 -1.13534778e-02
   4.72148806e-02 -9.50004756e-02  1.36232153e-01  1.12808719e-01
  -2.37597227e-02 -8.04178119e-02 -8.27185363e-02  1.20741501e-01
   1.74674198e-01  1.14236698e-01  2.02149317e-01  1.92266062e-01
   3.87364477e-02 -8.23276192e-02 -1.48377031e-01  9.51793343e-02
  -2.52571702e-03  2.07989559e-01 -4.27712500e-02  4.26110625e-03
  -1.69816017e-01 -2.66903490e-02  1.99654773e-01 -7.68685788e-02
   1.20571405e-02  2.12141275e-02  9.38347131e-02 -1.51036412e-01
   1.57253310e-01  1.41311929e-01  1.32326946e-01 -5.81134409e-02
  -1.75602719e-01  8.67324322e-02  6.03285879e-02  1.70346186e-01
   1.73707470e-01 -1.94552630e-01  1.98280409e-01 -1.13785565e-02
  -5.17406464e-02  6.87913746e-02 -1.75261676e-01 -1.98364541e-01
   1.08632371e-01  1.53258905e-01  1.16904065e-01 -7.53862411e-02
  -1.31035328e-01  2.11209968e-01 -9.32356715e-02 -3.58851254e-03
  -1.60356656e-01  5.13318628e-02  1.58204332e-01  2.13396803e-01]
 [-8.04159045e-02 -6.23185933e-02 -1.36233896e-01 -1.82446450e-01
   8.77894908e-02 -2.04294026e-02  1.16479501e-01  4.41526324e-02
   6.86423928e-02 -4.62645739e-02  6.61942214e-02  6.85581714e-02
   3.76779884e-02  9.88542587e-02 -1.31857365e-01 -3.45789343e-02
  -7.43630528e-03 -1.49992257e-01  1.26471385e-01 -7.78195262e-03
  -1.46499276e-02  2.32669711e-02 -1.79039001e-01 -1.60583675e-01
   4.32104915e-02  1.69807509e-01  7.28577226e-02  1.36565551e-01
   1.49483338e-01  2.08060369e-01 -1.28107369e-02 -1.36137724e-01
  -4.14079428e-02 -2.11571813e-01  1.30224690e-01  1.73494801e-01
   3.45167369e-02  1.01760164e-01  2.16175005e-01  1.98024884e-01
  -2.03813612e-03 -1.64622515e-01 -1.97536573e-01  3.70789021e-02
   8.70758146e-02  1.47111416e-02  4.87119406e-02 -1.82044506e-03
   8.80566239e-03 -2.46387720e-03  1.00212321e-01  1.89003423e-01
  -1.33365631e-01 -1.56858683e-01  1.99784026e-01  1.82172343e-01
   9.82847065e-02  9.47830081e-03 -2.34839767e-02 -1.87929526e-01
   2.10247591e-01  1.56739220e-01 -1.75783336e-02 -4.38911319e-02]
 [ 1.71362147e-01  8.34151357e-02 -1.69964671e-01 -1.00729838e-01
   2.03972802e-01 -1.74982622e-01  7.53876567e-03 -1.56621128e-01
   2.08363160e-01  5.52515835e-02  1.95844397e-01  1.13057211e-01
  -9.96501744e-02 -5.84925860e-02  1.01996824e-01  1.69665083e-01
  -9.31033194e-02 -1.66711792e-01 -1.10702969e-01  1.85425118e-01
  -8.71372223e-03 -1.60134077e-01  1.48124248e-02  1.06233314e-01
  -3.75801176e-02  7.40654618e-02  1.05376557e-01 -6.09481037e-02
   1.54760763e-01 -1.61997780e-01 -1.27417967e-01  1.35997638e-01
   1.67778239e-01 -1.63243443e-01 -2.11838633e-01  1.73256740e-01
  -4.37616706e-02 -1.30875930e-01  7.64802545e-02 -1.23739228e-01
   7.59581774e-02  1.56620666e-01 -1.32017493e-01 -1.76026732e-01
  -1.49607658e-03 -8.21903050e-02  1.71621546e-01  1.57469288e-01
  -1.07565403e-01  1.20886549e-01  2.03677490e-01 -1.12073869e-02
   6.62945062e-02 -4.30637300e-02 -1.37550086e-01 -1.32211626e-01
   1.76623479e-01 -1.71213910e-01  3.03589106e-02  4.62558120e-02
  -4.73843515e-02 -1.44382849e-01  1.43690601e-01 -1.90685526e-01]
 [-2.45214701e-02  1.10568449e-01  8.23135227e-02  1.74452201e-01
  -1.49538368e-01 -1.14966348e-01  8.67006332e-02  4.09471840e-02
  -7.93561041e-02  9.18576568e-02  1.40004471e-01  1.47990867e-01
   7.15424567e-02 -4.85633314e-03  3.65061909e-02 -1.27678633e-01
   6.44663125e-02 -6.38075471e-02 -1.96576610e-01  9.37922746e-02
   9.89666432e-02  7.05671757e-02  4.07605916e-02  4.76567000e-02
   1.82689264e-01 -8.05125386e-02  2.37151235e-02  1.60250887e-01
   4.71384376e-02 -4.93461341e-02  1.19769856e-01 -5.23990989e-02
  -1.31813228e-01 -1.68977827e-02 -1.93061247e-01 -1.13923229e-01
   3.62950116e-02  1.15006104e-01 -1.94539562e-01  1.29765272e-03
  -2.24860162e-02 -2.10442290e-01 -7.63312280e-02  1.32504299e-01
   1.15971372e-01  1.67749748e-01 -5.19363284e-02  1.45430312e-01
  -2.10025668e-01 -6.22958839e-02 -3.03380042e-02 -1.91040456e-01
  -1.13848530e-01  8.83516818e-02 -1.14761420e-01 -1.04074657e-01
   6.70694560e-02 -1.72646031e-01 -2.52514631e-02  1.41517356e-01
   1.31949559e-01 -1.03066742e-01  1.05364159e-01 -7.99341351e-02]
 [ 1.48398146e-01 -9.95384678e-02 -1.92463338e-01  1.93249181e-01
   4.94282097e-02 -2.12580770e-01  1.84316292e-01  1.65950805e-02
   3.34416181e-02 -2.00868487e-01 -4.56421524e-02  3.79299968e-02
   9.67525989e-02  1.49233595e-01 -8.98735225e-03  5.03762066e-03
  -2.82630771e-02 -9.61639211e-02 -1.67197272e-01  1.78702131e-01
  -2.08329409e-01 -1.13675244e-01  2.09433869e-01 -8.73490721e-02
  -5.52614778e-02 -6.08165264e-02 -1.67345375e-01 -1.31127313e-01
   1.96455047e-01  1.11907020e-01  1.68628141e-01  9.78892893e-02
   4.78279740e-02  1.05876282e-01  1.36099622e-01  1.57677725e-01
  -1.71892643e-01 -1.32809639e-01  2.86104679e-02  7.71702081e-02
  -9.99217406e-02 -5.24007082e-02  9.47862118e-02 -8.23340714e-02
   1.15945771e-01 -2.07695171e-01 -1.50957435e-01 -1.17320232e-01
  -1.45898193e-01  2.87500024e-02  1.79764763e-01  1.15380809e-01
  -2.13669047e-01 -9.59658027e-02 -5.30096889e-03 -6.16049021e-02
  -1.63902164e-01  8.75926763e-02  1.97058424e-01 -6.57092482e-02
   1.69623777e-01 -1.86426282e-01  5.28060049e-02 -1.75293893e-01]
 [ 1.37734517e-01 -6.38528764e-02  4.67089266e-02  1.18188784e-01
   1.10528901e-01  1.83389738e-01  1.19725540e-01  1.05051234e-01
   3.61817628e-02  4.88844663e-02  1.57217190e-01 -2.11751968e-01
   1.71221718e-01 -2.03938842e-01 -1.09542981e-01 -8.41774344e-02
  -4.39565778e-02  1.10692754e-01 -7.49709159e-02  1.60902008e-01
   7.42616206e-02 -2.02021495e-01 -4.37325090e-02  3.55599970e-02
   1.86807439e-01  1.91379085e-01 -2.05213830e-01  1.99195668e-01
  -1.59459770e-01 -1.52405083e-01 -1.15380123e-01 -1.82196647e-01
  -1.20568521e-01 -7.45508373e-02 -1.86977059e-01 -1.33208752e-01
  -8.10492635e-02 -5.54897934e-02  1.70760080e-01  1.84127793e-01
   6.50841445e-02  8.76585692e-02 -1.02146320e-01 -1.64376959e-01
   1.67886898e-01 -1.08358942e-01 -4.63753492e-02 -1.49038643e-01
  -1.22973457e-01  4.95099872e-02  1.98228791e-01 -1.62472278e-02
  -2.17819810e-02 -1.75460458e-01  8.43826681e-02  7.54057616e-02
  -4.42589670e-02  1.31261840e-01  1.25326216e-03  6.83479756e-02
  -9.43139195e-04 -3.10378075e-02 -2.20809132e-02 -1.03063956e-01]
 [ 1.82223246e-01  1.66615471e-01 -1.93659768e-01 -1.46102339e-01
   2.95366794e-02 -1.25230297e-01  1.53694168e-01  1.53297022e-01
  -1.63614184e-01 -2.05168515e-01 -1.77074820e-02  1.24169067e-01
  -4.53526825e-02 -7.99788386e-02  6.16439432e-02 -1.53062254e-01
   3.15973163e-02  1.36929199e-01 -8.55461210e-02  2.39610672e-03
  -1.23925723e-01 -1.90698430e-01 -7.10313916e-02  6.15708530e-03
   2.40643322e-03  8.76244158e-02 -9.22357067e-02  1.31818801e-02
   9.59116966e-02 -1.07591212e-01  1.11491248e-01 -2.15020433e-01
  -1.72947332e-01  4.51333970e-02 -1.13391444e-01  8.53934884e-03
  -1.08598456e-01 -1.19163081e-01 -1.18017659e-01  1.63139090e-01
  -2.06861362e-01 -2.92942673e-02  6.07706606e-03  8.48169625e-03
   1.01669416e-01  1.67407826e-01  1.54886886e-01 -6.22380674e-02
  -9.65712965e-02 -1.73085302e-01  1.47259533e-02 -6.11940175e-02
   1.72346488e-01 -1.50974408e-01  1.79892108e-01 -1.15445167e-01
  -4.59341109e-02 -6.72230124e-03 -1.29310220e-01 -1.72673345e-01
  -7.39832819e-02 -8.84277672e-02  2.24614441e-02  1.67932883e-01]
 [-5.79375774e-02  5.23421019e-02 -1.63891897e-01  1.11358121e-01
  -1.00530483e-01  2.35095769e-02  1.58695877e-02 -1.13531798e-01
   5.71260303e-02  1.76887959e-02 -7.57625401e-02 -1.72279075e-01
  -1.43811435e-01 -1.15288034e-01 -2.71533132e-02 -2.00360239e-01
  -1.02086805e-01 -6.28015399e-02 -1.55688375e-01 -6.57951385e-02
  -1.50096983e-01  1.72266260e-01  2.81152874e-02 -2.39953548e-02
   5.80308586e-02  1.02842301e-02  2.07790509e-01 -2.00167596e-02
   7.98270255e-02 -2.05936551e-01  1.69701323e-01  2.40972638e-02
  -4.16539609e-02  8.28260928e-02 -7.27033317e-02 -6.14395142e-02
   1.11733958e-01  1.06377497e-01 -1.92919910e-01 -2.00187325e-01
   2.57762223e-02  1.75956264e-01  1.16666153e-01 -1.18931003e-01
  -1.75940007e-01  1.94133893e-01 -1.93717420e-01 -1.06408462e-01
   1.09535307e-02  2.04955682e-01  1.39287427e-01  7.18701035e-02
  -9.05409455e-03 -1.55072451e-01 -1.21160746e-01 -1.63246706e-01
   1.51843742e-01 -5.40192127e-02  9.66023654e-02  6.26666099e-02
   2.11617604e-01 -1.34853601e-01 -8.56461078e-02 -1.71498686e-01]
 [ 1.66985527e-01 -2.04926878e-02  1.02097496e-01 -1.35806084e-01
  -1.60696417e-01  1.10438511e-01  9.89581794e-02 -1.08983018e-01
  -1.49770916e-01  1.10555485e-01  3.34668607e-02 -4.04880345e-02
   5.30252308e-02  1.93722948e-01  1.27483979e-01  1.68334693e-02
   1.21344775e-02 -1.35169402e-01  3.28525305e-02 -1.54384673e-01
  -6.79118335e-02  2.74689645e-02 -4.24583405e-02 -2.06363916e-01
   6.75184876e-02  7.22789317e-02 -4.52990979e-02 -4.45039570e-02
  -5.08270860e-02  4.17138785e-02  9.36228186e-02  1.69670030e-01
  -6.68741763e-03 -1.56631038e-01 -8.72781575e-02  1.15703061e-01
   1.54882178e-01 -1.17546991e-01 -8.70494843e-02  1.15205958e-01
   1.98115215e-01  3.64070386e-02  2.10441306e-01  1.19764283e-01
  -1.17929593e-01  2.94634849e-02  1.98659793e-01 -1.46830589e-01
  -6.47462904e-02 -8.09689015e-02  2.03775093e-01 -1.36585981e-01
   6.97126985e-03 -3.35371643e-02  2.05442861e-01  2.11252913e-01
   1.61111653e-02 -8.36528391e-02  3.26139033e-02  2.14819476e-01
  -1.72583267e-01  1.02763921e-02 -2.00331435e-01  4.52627242e-03]
 [-7.35016763e-02  1.62600890e-01  6.16979748e-02  1.41342238e-01
   7.51287192e-02 -2.67766565e-02  1.64659917e-02  3.89989763e-02
   1.47533998e-01 -1.90078646e-01  7.05229491e-02  8.37429017e-02
   1.06374606e-01  1.88271865e-01  1.51895240e-01 -1.25713140e-01
  -2.04844758e-01  3.35487723e-03 -5.37627190e-02 -1.12295933e-01
  -2.01564983e-01 -1.80362105e-01 -1.57543510e-01  2.59174407e-03
  -1.42537117e-01  1.75178006e-01  1.48940191e-01  1.08093366e-01
  -9.09753144e-02 -1.40482664e-01  1.00562736e-01  7.21402317e-02
   1.15688458e-01 -1.26003087e-01  4.22940403e-02 -3.64270508e-02
   2.12793648e-02  2.86418647e-02 -1.01121679e-01  5.27154654e-02
  -3.68636549e-02  4.73607630e-02  8.20595175e-02  1.35024205e-01
  -1.26180947e-02 -6.00887984e-02 -1.30855173e-01  4.91715521e-02
   1.52245179e-01  2.08873466e-01  9.45218652e-02  7.67856389e-02
   8.67436379e-02  1.03031099e-03 -1.77016824e-01  2.76895314e-02
  -1.03221394e-01  1.67647555e-01 -1.64922357e-01  1.13283500e-01
  -7.83600658e-02  1.53143689e-01  2.69070268e-03 -1.07131854e-01]
 [-9.98249575e-02  8.25241357e-02 -1.76080719e-01 -9.08339322e-02
  -4.16994840e-02  1.60763457e-01  1.71315655e-01 -1.45746619e-02
  -1.15419254e-01  2.14433417e-01 -1.66447759e-01  1.86977401e-01
  -1.23295456e-01 -1.93353444e-02  1.65987924e-01 -1.63928285e-01
   1.30531594e-01 -3.00486833e-02  6.08466715e-02 -1.75469190e-01
  -2.06433699e-01 -1.16114870e-01 -4.16286141e-02 -3.70825231e-02
  -5.25858104e-02  2.08246931e-01  1.05243608e-01 -1.90691307e-01
  -6.41973764e-02  4.02480215e-02  1.97386935e-01 -6.02121651e-03
   1.93822727e-01  1.01534322e-01  1.32589623e-01  1.93654135e-01
   5.31415790e-02  1.35486200e-01 -9.75534320e-03 -1.74853057e-01
  -1.82510763e-02 -1.40091866e-01 -7.84121007e-02  1.26515463e-01
   2.04364076e-01 -2.06084192e-01 -1.02270313e-01  1.55702993e-01
  -2.01717213e-01 -3.31968069e-03  2.02279434e-01 -6.46735579e-02
  -9.95805860e-03 -4.33045328e-02 -8.54279697e-02 -2.14453086e-01
  -1.07729703e-01 -8.45285058e-02 -5.75931668e-02 -1.93737045e-01
   1.15038976e-01  1.71694800e-01 -2.15004072e-01 -8.28133076e-02]
 [ 3.24549675e-02 -2.05637574e-01  6.41246587e-02 -1.71959028e-01
   4.31995243e-02  1.62804738e-01 -7.23958313e-02  2.03855380e-01
  -1.01807028e-01  1.81986406e-01  1.85746089e-01  2.15354010e-01
  -1.73802346e-01  1.00251898e-01 -9.71515477e-02  5.90170473e-02
   4.58089858e-02  9.76890177e-02  2.07029328e-01  3.97059470e-02
   2.10822865e-01 -2.07806244e-01 -3.50272506e-02  1.47641525e-01
  -1.70385540e-02  8.00010413e-02  7.19347149e-02  2.08525360e-02
   1.31224409e-01 -4.74640578e-02 -1.94479898e-01 -1.82960004e-01
   1.03700623e-01 -7.82620460e-02 -1.52539656e-01  9.28803235e-02
   8.64017159e-02  5.76680750e-02 -7.87416399e-02  2.02538773e-01
   7.38161355e-02 -5.94980270e-02 -1.72577173e-01  1.99299678e-01
  -1.78554207e-02 -2.15099409e-01  1.75973192e-01  7.19339103e-02
   2.01340750e-01 -8.62709582e-02  1.08542904e-01  4.29873914e-02
  -1.97915554e-01  7.56737441e-02  5.97450584e-02  2.01737538e-01
   1.80270240e-01 -1.68209210e-01  1.71609923e-01  1.10330731e-02
  -5.73204160e-02  1.26759723e-01  2.89088786e-02 -1.27885789e-01]
 [-3.19178104e-02  6.24973923e-02 -9.02519822e-02  7.70432204e-02
   1.23080626e-01 -1.50948852e-01 -4.01048660e-02 -1.09238379e-01
   8.44817311e-02 -2.10518017e-01 -1.96400285e-03 -1.37269884e-01
  -7.30267316e-02  1.08227149e-01  1.81503594e-03  7.24296421e-02
  -1.47811964e-01  1.55311599e-01  1.21559501e-02  5.88334352e-02
  -1.07633024e-01 -1.83774233e-01 -1.61625922e-01 -1.92156002e-01
   1.87769309e-01  3.69477421e-02  6.85848445e-02 -1.14555046e-01
  -7.01142848e-03  1.51482239e-01  1.74339548e-01  1.71498165e-01
  -9.11544412e-02  1.71132311e-01  8.21671933e-02 -1.16033264e-01
  -1.78548679e-01  1.72032937e-01  5.97128719e-02 -1.55009985e-01
   1.02359667e-01  1.39982000e-01  1.50487319e-01  7.78339654e-02
  -1.27579421e-01  1.39915928e-01  4.34008986e-02  1.95109650e-01
   7.94518739e-02 -7.22522885e-02 -1.94845617e-01  9.35633928e-02
  -1.26138180e-01 -1.36898339e-01  1.80137768e-01 -8.22700113e-02
  -1.17858149e-01  9.07394737e-02 -1.70811743e-01 -4.79430258e-02
  -9.12739336e-03 -2.06638053e-01 -1.45777449e-01  2.15817645e-01]
 [ 5.90540320e-02  1.88655719e-01  4.27726954e-02  2.05139652e-01
   1.68834940e-01 -7.67813623e-03 -1.42453641e-01  1.08297154e-01
  -1.06762052e-01 -7.29826987e-02  1.30741194e-01 -2.06032768e-01
   3.45319659e-02  1.73059598e-01  1.47162035e-01 -7.90183693e-02
   1.71073154e-01  1.03766635e-01 -2.08833933e-01 -5.77926338e-02
  -9.09222066e-02 -1.48205310e-02 -5.99185079e-02  6.76029921e-03
  -7.29018152e-02 -1.69795111e-01 -1.59800619e-01  1.61496699e-02
  -2.07281485e-01  2.05243096e-01 -2.04609990e-01  9.29474682e-02
  -1.03749782e-02 -4.02752161e-02  8.66522640e-02  2.12953702e-01
   1.58149317e-01  2.04056054e-02  1.16067335e-01  1.32295191e-02
  -1.34236842e-01  8.39857906e-02  4.94690984e-02  4.90052551e-02
  -1.43453509e-01 -1.01141140e-01  2.14317426e-01 -2.87598073e-02
  -1.62828848e-01  1.28928497e-01 -1.46161079e-01  3.54022533e-02
   1.37445912e-01  6.09646291e-02 -1.40232056e-01  6.67327493e-02
  -1.93951309e-01  1.40880495e-02 -1.82101414e-01 -4.70006615e-02
   1.45142749e-01 -1.99147403e-01  1.47720501e-01  1.97080776e-01]
 [-4.34080809e-02  5.17068952e-02  1.41095802e-01 -1.03305735e-01
   1.65284768e-01 -1.73409939e-01  7.21649975e-02  1.69794694e-01
  -9.11075175e-02 -2.00370625e-01 -1.68433189e-01 -1.73209399e-01
  -2.61142701e-02 -1.59981698e-02  8.14467818e-02  1.54244676e-01
  -8.16454738e-02 -9.61689800e-02 -1.81243256e-01 -1.19827218e-01
   1.76133260e-01 -1.47235125e-01  7.04497546e-02 -3.92875373e-02
  -4.33198065e-02  1.73160627e-01 -1.58009067e-01  1.62352309e-01
   1.89955726e-01  1.30701557e-01  7.25091547e-02  2.12985203e-01
  -1.99993342e-01 -1.58833116e-01  1.58661738e-01  2.10470930e-01
  -6.81816489e-02 -1.53074384e-01 -1.28305048e-01 -9.11235213e-02
  -4.53176200e-02 -4.51951325e-02 -1.17500223e-01  1.68385431e-01
   2.13809028e-01 -1.17608264e-01  1.78013742e-03  2.06426010e-01
   9.57521647e-02 -1.03169680e-02  2.13262603e-01  1.97298154e-01
  -1.82535067e-01 -9.61448252e-03 -1.98966473e-01  7.88812786e-02
  -9.79716778e-02 -1.72042251e-01  1.96631834e-01 -1.49690121e-01
  -1.64371699e-01  1.50780529e-02 -3.89865339e-02 -1.98715553e-01]
 [ 1.10587850e-01 -2.45810896e-02 -8.52641314e-02 -3.72504890e-02
  -1.30391896e-01 -1.40676081e-01 -5.12610078e-02  7.71758705e-02
  -1.35329276e-01  7.78001100e-02  2.84456611e-02 -1.13554202e-01
   1.47820696e-01  7.70432502e-02 -1.29453048e-01 -8.37694407e-02
  -7.54730552e-02 -2.15591967e-01  1.54812649e-01 -1.81637257e-01
   8.28898996e-02 -1.72230899e-02  1.60265908e-01 -1.00206211e-01
  -1.17676295e-01 -8.66288394e-02  1.82648018e-01 -1.23946369e-01
   5.89620024e-02 -4.47931290e-02  9.41112638e-04  8.25517625e-02
   1.27643242e-01  1.37399510e-01  5.34095019e-02  4.74155396e-02
  -1.13670908e-01  1.75656363e-01  1.39267549e-01 -1.60874486e-01
   8.34678262e-02  7.10426420e-02  1.04722723e-01 -6.96279109e-02
   1.41509637e-01  1.20626584e-01 -1.50861055e-01 -3.12509984e-02
  -1.04304463e-01  1.16280064e-01  1.24516189e-02  1.12301305e-01
  -3.97811085e-02  4.50910777e-02 -2.05870748e-01 -1.86918318e-01
  -1.31179750e-01 -9.01359916e-02  1.80232033e-01  2.15022400e-01
   2.30945498e-02  1.34182200e-01 -6.47685379e-02 -5.09762764e-02]
 [-1.81590289e-01  3.86214405e-02 -8.81390572e-02 -8.85012150e-02
  -1.63416997e-01  1.43445432e-02  7.94112682e-04  7.27270693e-02
  -8.19763541e-02  1.41889587e-01 -4.00128365e-02 -7.35784322e-02
  -2.16419056e-01 -3.11902910e-02  1.14208564e-01 -1.36900812e-01
   1.18796691e-01  1.80337384e-01 -7.37704486e-02 -6.98798150e-02
  -5.56107908e-02 -1.18086100e-01  1.77403823e-01 -1.82736754e-01
   1.12603232e-01  1.52713314e-01 -1.47638172e-01 -9.05038267e-02
  -8.81640911e-02 -3.26875597e-02  1.60641536e-01  4.53458577e-02
  -2.21253484e-02 -6.72134310e-02 -4.27851975e-02  1.33134380e-01
   1.92364022e-01 -7.34683275e-02  1.56014249e-01  8.66015702e-02
   1.96973532e-02  1.83946297e-01  1.67552516e-01  9.61126536e-02
   1.00728795e-01  1.89309165e-01 -7.86145478e-02  7.75334239e-03
   5.21088094e-02  1.05020121e-01 -1.11594275e-01 -1.76263094e-01
  -1.35196149e-01  2.11574808e-01 -1.06398501e-01 -2.09379241e-01
  -2.00013831e-01  1.75143778e-03 -2.30698884e-02 -3.26585472e-02
  -2.81821936e-02 -1.42820492e-01 -5.88566512e-02  1.86134413e-01]
 [ 1.55108735e-01  1.15710601e-01  1.86384097e-01  1.35490790e-01
   4.67695743e-02 -1.84865147e-02 -4.26623374e-02  1.13726661e-01
   1.76862136e-01 -1.17052376e-01  3.55683714e-02  2.03411594e-01
  -2.15803534e-02  2.15771660e-01 -9.65844616e-02 -6.13707602e-02
   7.11271912e-02 -1.24936633e-01 -1.17777675e-01 -4.96461987e-02
  -1.02640212e-01 -1.65141642e-01  4.10222560e-02 -3.01586390e-02
   1.05392173e-01 -2.04209983e-03  1.52920857e-01 -1.57314986e-02
   9.17204469e-02 -6.97529316e-02 -2.60324627e-02 -1.20387182e-01
  -1.85980186e-01 -2.75558233e-03 -1.43318310e-01  1.68209225e-02
  -3.64478528e-02  3.48049253e-02 -1.67803854e-01 -2.10638285e-01
  -1.02677949e-01 -5.36606163e-02  1.69709459e-01  7.77294487e-02
  -1.49845451e-01  4.56597060e-02 -8.25087428e-02  1.71134368e-01
  -8.91369581e-02  1.77787259e-01 -1.28843635e-01 -5.94086647e-02
   3.80803198e-02  8.88855755e-03  1.60985067e-01  1.43741474e-01
  -2.12294221e-01 -5.08783460e-02 -3.70486081e-02  2.06447855e-01
  -1.99319854e-01  3.67536992e-02  1.12371191e-01 -1.62541538e-01]
 [-1.74468130e-01 -2.19708532e-02  6.96396381e-02 -6.32897019e-02
  -5.80052435e-02  7.12658465e-03 -1.35715008e-02  1.73436210e-01
   1.60378948e-01  1.82738855e-01 -1.58610433e-01 -3.78565490e-02
   2.10011527e-01 -2.00346768e-01  1.02394000e-01 -1.26068234e-01
  -1.81980729e-01 -1.77201062e-01 -4.02001590e-02 -1.85945079e-01
   1.00992009e-01  1.26711860e-01  1.70595095e-01 -1.80888057e-01
   1.37207523e-01 -1.05954267e-01 -1.32055998e-01  2.48853862e-02
  -1.69119924e-01 -1.58211723e-01  1.80761382e-01 -1.58946216e-01
   1.26398489e-01  6.07087463e-02 -1.65911227e-01  5.87799400e-02
  -3.74925733e-02  9.92691666e-02 -9.06785578e-02  2.12647155e-01
   2.76950598e-02 -1.86719835e-01 -1.92394257e-02 -1.08302571e-01
  -1.02094755e-01  1.00848153e-01 -1.97284982e-01  1.24095976e-02
  -3.32491249e-02  2.08164647e-01  9.78910476e-02  1.46947488e-01
   2.95500904e-02 -1.99357852e-01 -1.01562046e-01 -1.78321406e-01
   1.50513202e-02  5.98017424e-02  1.79176226e-01  4.76940125e-02
  -2.13665336e-01 -5.19787669e-02 -1.65061638e-01  1.70522168e-01]
 [ 1.10583946e-01  1.85540184e-01 -4.09556031e-02 -2.03888252e-01
   8.80737454e-02 -1.13301218e-01  4.87338454e-02 -5.54463267e-02
   1.37783185e-01 -7.93695450e-03 -2.21142173e-03 -1.06779806e-01
  -3.84168774e-02  4.08499986e-02 -9.92308706e-02 -2.85192132e-02
   1.79753974e-01 -1.21929042e-01  1.18238106e-01 -8.47909898e-02
   1.09651133e-01  1.95603803e-01 -4.78012264e-02 -1.62900954e-01
   8.44476074e-02 -1.26591593e-01  1.78927347e-01  4.21825796e-02
   1.30231723e-01  3.25912386e-02  1.02354303e-01 -5.61712235e-02
  -1.95764855e-01 -1.47565007e-01 -1.28097892e-01 -1.29793525e-01
   1.10819623e-01 -9.90161374e-02  1.08510748e-01  7.85467029e-03
   1.55978158e-01 -3.61261666e-02  8.09029788e-02  1.18540868e-01
   1.69039980e-01  1.89641997e-01 -1.25293583e-01 -1.75548524e-01
   1.57948092e-01 -1.23221226e-01 -1.41893715e-01 -8.61183256e-02
  -1.18899159e-01 -2.02962473e-01  1.55744419e-01 -1.41198575e-01
  -1.78777128e-02  9.47485715e-02 -4.73777503e-02 -8.63694549e-02
   1.07846260e-02 -1.98967010e-02 -1.22477911e-01  1.61273047e-01]
 [-2.02787936e-01  1.33296505e-01  2.00518832e-01  1.77007169e-02
  -1.88090220e-01  5.60257584e-02  1.11795887e-01 -1.18239373e-02
  -2.05826551e-01  2.37755179e-02  2.74324715e-02 -1.05210744e-01
  -1.92229554e-01  1.89194754e-01  1.34908721e-01 -8.77828896e-02
  -1.25654548e-01 -4.84795868e-03  4.11079973e-02  5.22131175e-02
  -1.17012061e-01  1.99350879e-01 -8.10763687e-02 -4.88159657e-02
  -9.67220813e-02 -1.30986124e-02  6.88589364e-02  2.05140069e-01
   2.10705653e-01  1.46058872e-01 -1.94703564e-01  1.34993270e-01
   3.21719348e-02 -1.41675889e-01  2.13872030e-01  9.69817787e-02
   6.89202100e-02  1.84457824e-01 -1.92901120e-01  1.30041882e-01
   1.55984774e-01  7.34403878e-02  1.47435978e-01  5.22224456e-02
  -1.35565430e-01  1.60294965e-01 -1.36122242e-01 -2.55763978e-02
   1.03345439e-01  1.52148113e-01  7.33783990e-02  9.30166095e-02
  -1.09464109e-01  1.94272235e-01 -1.63019791e-01 -9.57384780e-02
  -2.49550641e-02 -4.18889523e-03 -1.63098916e-01  1.81073681e-01
  -3.58516574e-02 -3.03058475e-02  1.45959854e-02 -7.06611723e-02]
 [ 1.36580631e-01  2.04338953e-01  1.10447720e-01  1.83608964e-01
   2.27827281e-02  8.34778398e-02  1.60976693e-01  1.07982755e-03
  -1.27251491e-01  2.01438561e-01 -8.93891603e-02 -1.76533669e-01
   1.47527531e-01  1.62849352e-01  1.18228003e-01  1.44383416e-01
  -4.29792255e-02  1.71709344e-01  8.82089585e-02  4.79712635e-02
  -1.74015433e-01  3.60840410e-02 -1.50708050e-01 -5.90804815e-02
  -4.35661823e-02 -2.01754883e-01  6.32149726e-02  2.16144964e-01
   1.07149407e-01 -1.65339291e-01  1.20417282e-01  9.47117656e-02
  -1.94992676e-01 -5.81517965e-02 -2.38971263e-02 -8.01686943e-02
  -6.13462478e-02 -1.83014303e-01  1.19718805e-01  6.00823909e-02
  -2.10987642e-01 -2.15125129e-01 -3.15237045e-02  1.91492960e-01
  -1.03001297e-02 -2.34697759e-02  2.01755926e-01  1.79671332e-01
   1.73614398e-01  1.29183814e-01  1.01434484e-01  2.71653384e-02
  -9.14519727e-02 -9.72545296e-02 -6.10918701e-02  1.49024710e-01
   1.54724285e-01  1.94161966e-01 -4.05137241e-03 -1.11533985e-01
  -1.05203979e-01 -1.92534626e-01 -1.88395292e-01  8.02402943e-02]
 [ 7.06192106e-02 -2.84545273e-02 -1.59720346e-01 -1.07255630e-01
  -1.81959718e-01  2.54375935e-02  8.92327577e-02 -2.00031891e-01
  -2.50653177e-02 -1.36764333e-01  8.62537175e-02  3.76782566e-02
   8.01233202e-02 -1.00912899e-02  7.87795633e-02  1.88105538e-01
   7.31158704e-02  8.24598223e-02 -7.98615664e-02  1.66834608e-01
   7.55487233e-02 -5.37790358e-02 -6.61919415e-02 -2.14285687e-01
   2.14686558e-01 -1.35466009e-01 -1.48077637e-01  5.71739227e-02
  -1.22183010e-01 -2.80056596e-02  1.70338556e-01 -1.22059226e-01
  -1.19390570e-01  1.25928521e-02 -8.64662230e-03  1.42916515e-01
  -3.23473960e-02  5.26182801e-02  8.13320428e-02 -1.29618794e-01
   1.31479666e-01 -1.50966197e-01 -1.60788655e-01 -2.35848129e-03
  -2.06681013e-01 -9.07049328e-02  1.71637639e-01 -8.33373964e-02
  -1.17212504e-01 -1.14622049e-01 -2.80894339e-02  9.37864333e-02
  -2.28103399e-02 -1.11497939e-03 -1.62765980e-02  1.05920807e-01
   2.68234313e-03  7.77169317e-02  4.08843309e-02 -1.83275446e-01
   8.05076808e-02 -2.03081086e-01 -1.45411372e-01  1.75296888e-01]
 [-3.64523977e-02  1.01818219e-01 -1.64407104e-01  1.45878300e-01
  -6.02111369e-02  1.33126006e-01 -1.25580937e-01 -2.56621987e-02
   4.07454520e-02 -1.60866186e-01 -8.87382030e-02 -1.55783921e-01
  -1.14986941e-01 -2.70449668e-02 -1.61570683e-01 -2.29052156e-02
  -1.15498073e-01  5.77316731e-02  1.43530354e-01 -5.67027926e-02
   2.15356633e-01  1.94440618e-01 -1.89593524e-01  7.74971396e-02
  -1.57597721e-01 -1.40401006e-01  1.34419128e-01 -1.03943646e-01
  -1.61890984e-01  1.22097328e-01  1.54435188e-02  1.76630571e-01
  -1.73818663e-01 -1.63386583e-01  2.63874382e-02 -4.15296555e-02
   2.05846474e-01  1.80527404e-01  9.06389803e-02  1.24899670e-01
   1.51724949e-01  1.44185826e-01  3.11840475e-02  7.27283806e-02
   1.33139804e-01  1.52419701e-01 -8.27645212e-02  8.71328562e-02
  -5.00822812e-02  1.53376654e-01 -1.43287182e-01 -2.44727880e-02
   1.35466561e-01 -1.80755556e-01  2.58732140e-02  8.19361210e-03
  -1.62752450e-01  1.80213079e-01  1.11474410e-01 -1.28005028e-01
   2.30526477e-02 -4.12082821e-02  1.06639042e-01  1.80005386e-01]
 [ 9.58517939e-02  2.45096385e-02 -1.41424149e-01 -1.42387211e-01
   6.89212978e-03  1.76872924e-01  6.00246340e-02 -1.41600639e-01
   9.97168273e-02 -1.93714201e-02 -2.63283849e-02  7.43981451e-02
   1.84377447e-01  5.94070107e-02  1.40016958e-01 -1.96722075e-01
   2.06108615e-01  1.56736091e-01  1.17892370e-01  1.39526471e-01
  -3.86296958e-02  9.93664116e-02  1.15865603e-01 -1.29130065e-01
   6.58403486e-02  5.18480092e-02  3.56115401e-03  1.11037865e-01
   7.73281008e-02  3.80443782e-02  1.19611338e-01 -1.97120830e-01
  -3.10198963e-02  1.35458991e-01 -1.92928612e-02  1.47869140e-02
  -3.06147933e-02  2.94958949e-02 -1.55915618e-02  1.35769889e-01
  -2.06912264e-01 -1.78928375e-02  2.48346925e-02 -2.08770290e-01
   3.32477242e-02 -1.05565786e-02  1.91943124e-01  1.69695780e-01
   1.15345940e-01 -6.28831536e-02  7.73658305e-02 -1.11373708e-01
   7.86434561e-02 -2.40761489e-02  1.96884111e-01  8.23631436e-02
  -4.82786596e-02  1.77663043e-01 -1.64451540e-01 -7.51266479e-02
  -9.37259495e-02  1.52277365e-01 -1.20620035e-01 -1.16599262e-01]
 [-1.04238287e-01 -7.65540749e-02  1.13175958e-02  6.64597899e-02
   7.01802522e-02  1.57441095e-01 -1.34775400e-01  1.12639502e-01
  -9.50160623e-02 -1.68959707e-01  1.07760146e-01  8.02841634e-02
   1.30271479e-01  1.27356544e-01  1.54452816e-01 -1.30736858e-01
   3.81571203e-02  3.96336764e-02 -1.19728982e-01  1.32967278e-01
   8.33250135e-02 -1.92172050e-01  1.62658975e-01  8.63551944e-02
   1.20757297e-01  2.03223184e-01  1.05982795e-01  1.55434057e-01
  -1.67862535e-01  1.55770198e-01 -1.39306009e-01  4.52747196e-02
   5.07226735e-02  1.01186052e-01  1.81262508e-01 -3.85761112e-02
   2.37374753e-02 -1.15761951e-01  1.03814587e-01 -1.20070808e-01
   1.65555373e-01  5.51895797e-03  7.35562295e-02  2.49818563e-02
   1.11735180e-01 -7.83459842e-03  1.41364321e-01  1.72657594e-01
  -1.90774620e-01 -5.64771146e-02 -5.82223088e-02 -2.90771127e-02
   2.11234793e-01  1.45370886e-01 -1.46576881e-01 -1.27104640e-01
  -1.92086935e-01 -5.10327518e-03  1.00745127e-01  8.87720138e-02
  -9.86085013e-02 -1.93621725e-01 -3.09145898e-02 -6.08569384e-03]
 [ 1.47824928e-01  6.99912161e-02 -1.56873390e-01 -1.31612480e-01
  -5.98015487e-02 -1.35558158e-01 -1.95330054e-01 -1.03276059e-01
  -9.95590165e-02  1.02379218e-01  1.87644795e-01 -6.43252879e-02
   1.89336672e-01 -8.78358483e-02 -1.66977793e-01  1.36903897e-01
   1.83222696e-01  9.02809352e-02  1.03058442e-01 -9.74461883e-02
   1.66312888e-01  1.05132326e-01 -2.04529628e-01 -1.84345812e-01
  -1.84678882e-02  1.54333487e-01 -1.73646212e-02 -1.36607260e-01
  -1.14477150e-01 -3.80876958e-02  8.57312828e-02  1.56857088e-01
  -1.01212636e-01 -5.20570278e-02 -1.41125947e-01  1.87507287e-01
   1.85186282e-01  1.19317934e-01 -7.49150068e-02  1.40600964e-01
  -1.34754851e-01 -1.73189372e-01 -1.36950210e-01  1.25515088e-01
   1.98888734e-01  5.66043705e-02 -1.05126910e-01 -5.78098744e-02
  -1.94068223e-01 -6.53915852e-02 -1.01781636e-02  2.12419912e-01
   8.43360573e-02  1.45052865e-01 -3.55768949e-02 -1.46479055e-01
  -1.24379866e-01  1.64472803e-01 -5.70024550e-03  2.04174802e-01
   1.52008757e-01  1.14070907e-01 -5.08112460e-02  1.14084482e-02]
 [-3.97334695e-02  1.58966780e-02  1.51098356e-01 -1.36997700e-02
   1.48229450e-02  1.65096074e-02 -1.53785899e-01  1.16759390e-02
  -1.24013871e-02 -1.76759660e-01 -9.44505632e-03 -8.02504569e-02
  -1.00494973e-01 -9.97499004e-02  1.84254810e-01  3.02519649e-02
  -2.01430976e-01  1.37354746e-01  1.59587279e-01  1.61577538e-01
   2.01235116e-02  1.46516070e-01 -2.01993436e-02 -5.27621359e-02
  -2.03600124e-01 -1.80640087e-01  1.12820581e-01 -2.51842588e-02
   1.27328411e-01 -1.99088708e-01  2.80479342e-02  1.38403639e-01
   2.02718630e-01 -1.72115028e-01  1.54183164e-01  8.94874483e-02
  -1.07150897e-01  4.84917015e-02 -2.08195969e-01 -3.36862803e-02
  -1.63512900e-01  7.45578557e-02 -2.20469385e-02  3.43422592e-03
   1.20151743e-01  1.79629073e-01 -1.77991346e-01  7.18594640e-02
   1.31448284e-01  1.63931891e-01  1.28814980e-01 -1.37459174e-01
   1.07879028e-01  8.44949633e-02 -4.48079407e-02 -1.88882828e-01
   1.38372794e-01  2.10781798e-01 -1.28766924e-01  1.34909347e-01
   1.90083906e-01 -1.53446853e-01  1.54923782e-01  2.61372924e-02]
 [ 1.99410096e-01 -1.82110667e-01 -1.35137290e-02  1.36089876e-01
  -6.30840510e-02  4.26737517e-02  4.09191996e-02 -1.60291970e-01
  -4.94013727e-02 -2.30370462e-02 -5.41053265e-02 -1.78320259e-01
  -8.79441947e-02 -1.46862015e-01  1.92186236e-02  1.60487339e-01
   8.81536156e-02 -5.14699519e-02 -1.81672975e-01  2.13914916e-01
   8.61343592e-02 -1.81622088e-01 -1.42691240e-01 -2.09424049e-01
   1.79568365e-01  1.34491012e-01 -4.43311036e-03 -1.82551146e-03
   1.68119237e-01  4.00863588e-03  1.94594845e-01 -1.40009165e-01
   1.83276311e-01 -1.08334161e-01 -8.58726203e-02 -1.45986855e-01
  -2.43801773e-02 -1.66260123e-01  1.39864728e-01  1.63307980e-01
   1.50340274e-01 -2.01490521e-03  1.39957234e-01 -1.56764269e-01
   1.17983475e-01 -3.53028923e-02 -1.02141418e-01 -3.96054536e-02
